Language model created by QuickLM on Fri Feb 23 15:03:24 EST 2018
Copyright (c) 1996-2010 Carnegie Mellon University and Alexander I. Rudnicky

The model is in standard ARPA format, designed by Doug Paul while he was at MITRE.

The code that was used to produce this language model is available in Open Source.
Please visit http://www.speech.cs.cmu.edu/tools/ for more information

The (fixed) discount mass is 0.5. The backoffs are computed using the ratio method.
This model based on a corpus of 3 sentences and 8 words

\data\
ngram 1=8
ngram 2=9
ngram 3=6

\1-grams:
-0.9031 </s> -0.3010
-0.9031 <s> -0.2430
-1.3802 A -0.2825
-1.3802 BANANA -0.2430
-1.3802 HELLO -0.2430
-1.3802 IS -0.2825
-1.3802 TEST -0.2430
-1.3802 THIS -0.2825

\2-grams:
-0.7782 <s> BANANA 0.0000
-0.7782 <s> HELLO 0.0000
-0.7782 <s> THIS 0.0000
-0.3010 A TEST 0.0000
-0.3010 BANANA </s> -0.3010
-0.3010 HELLO </s> -0.3010
-0.3010 IS A 0.0000
-0.3010 TEST </s> -0.3010
-0.3010 THIS IS 0.0000

\3-grams:
-0.3010 <s> BANANA </s>
-0.3010 <s> HELLO </s>
-0.3010 <s> THIS IS
-0.3010 A TEST </s>
-0.3010 IS A TEST
-0.3010 THIS IS A

\end\
