Language model created by QuickLM on Wed Mar  7 21:07:54 EST 2018
Copyright (c) 1996-2010 Carnegie Mellon University and Alexander I. Rudnicky

The model is in standard ARPA format, designed by Doug Paul while he was at MITRE.

The code that was used to produce this language model is available in Open Source.
Please visit http://www.speech.cs.cmu.edu/tools/ for more information

The (fixed) discount mass is 0.5. The backoffs are computed using the ratio method.
This model based on a corpus of 9898 sentences and 9900 words

\data\
ngram 1=9900
ngram 2=19796
ngram 3=9898

\1-grams:
-0.7782 </s> -0.3010
-0.7782 <s> -0.2218
-4.7737 A -0.2218
-4.7737 AA -0.2218
-4.7737 AAA -0.2218
-4.7737 AARON -0.2218
-4.7737 AB -0.2218
-4.7737 ABANDONED -0.2218
-4.7737 ABC -0.2218
-4.7737 ABERDEEN -0.2218
-4.7737 ABILITIES -0.2218
-4.7737 ABILITY -0.2218
-4.7737 ABLE -0.2218
-4.7737 ABORIGINAL -0.2218
-4.7737 ABORTION -0.2218
-4.7737 ABOUT -0.2218
-4.7737 ABOVE -0.2218
-4.7737 ABRAHAM -0.2218
-4.7737 ABROAD -0.2218
-4.7737 ABS -0.2218
-4.7737 ABSENCE -0.2218
-4.7737 ABSENT -0.2218
-4.7737 ABSOLUTE -0.2218
-4.7737 ABSOLUTELY -0.2218
-4.7737 ABSORPTION -0.2218
-4.7737 ABSTRACT -0.2218
-4.7737 ABSTRACTS -0.2218
-4.7737 ABU -0.2218
-4.7737 ABUSE -0.2218
-4.7737 AC -0.2218
-4.7737 ACADEMIC -0.2218
-4.7737 ACADEMICS -0.2218
-4.7737 ACADEMY -0.2218
-4.7737 ACC -0.2218
-4.7737 ACCENT -0.2218
-4.7737 ACCEPT -0.2218
-4.7737 ACCEPTABLE -0.2218
-4.7737 ACCEPTANCE -0.2218
-4.7737 ACCEPTED -0.2218
-4.7737 ACCEPTING -0.2218
-4.7737 ACCEPTS -0.2218
-4.7737 ACCESS -0.2218
-4.7737 ACCESSED -0.2218
-4.7737 ACCESSIBILITY -0.2218
-4.7737 ACCESSIBLE -0.2218
-4.7737 ACCESSING -0.2218
-4.7737 ACCESSORIES -0.2218
-4.7737 ACCESSORY -0.2218
-4.7737 ACCIDENT -0.2218
-4.7737 ACCIDENTS -0.2218
-4.7737 ACCOMMODATE -0.2218
-4.7737 ACCOMMODATION -0.2218
-4.7737 ACCOMMODATIONS -0.2218
-4.7737 ACCOMPANIED -0.2218
-4.7737 ACCOMPANYING -0.2218
-4.7737 ACCOMPLISH -0.2218
-4.7737 ACCOMPLISHED -0.2218
-4.7737 ACCORDANCE -0.2218
-4.7737 ACCORDING -0.2218
-4.7737 ACCORDINGLY -0.2218
-4.7737 ACCOUNT -0.2218
-4.7737 ACCOUNTABILITY -0.2218
-4.7737 ACCOUNTING -0.2218
-4.7737 ACCOUNTS -0.2218
-4.7737 ACCREDITATION -0.2218
-4.7737 ACCREDITED -0.2218
-4.7737 ACCURACY -0.2218
-4.7737 ACCURATE -0.2218
-4.7737 ACCURATELY -0.2218
-4.7737 ACCUSED -0.2218
-4.7737 ACDBENTITY -0.2218
-4.7737 ACE -0.2218
-4.7737 ACER -0.2218
-4.7737 ACHIEVE -0.2218
-4.7737 ACHIEVED -0.2218
-4.7737 ACHIEVEMENT -0.2218
-4.7737 ACHIEVEMENTS -0.2218
-4.7737 ACHIEVING -0.2218
-4.7737 ACID -0.2218
-4.7737 ACIDS -0.2218
-4.7737 ACKNOWLEDGE -0.2218
-4.7737 ACKNOWLEDGED -0.2218
-4.7737 ACM -0.2218
-4.7737 ACNE -0.2218
-4.7737 ACOUSTIC -0.2218
-4.7737 ACQUIRE -0.2218
-4.7737 ACQUIRED -0.2218
-4.7737 ACQUISITION -0.2218
-4.7737 ACQUISITIONS -0.2218
-4.7737 ACRE -0.2218
-4.7737 ACRES -0.2218
-4.7737 ACROBAT -0.2218
-4.7737 ACROSS -0.2218
-4.7737 ACRYLIC -0.2218
-4.7737 ACT -0.2218
-4.7737 ACTING -0.2218
-4.7737 ACTION -0.2218
-4.7737 ACTIONS -0.2218
-4.7737 ACTIVATED -0.2218
-4.7737 ACTIVATION -0.2218
-4.7737 ACTIVE -0.2218
-4.7737 ACTIVELY -0.2218
-4.7737 ACTIVISTS -0.2218
-4.7737 ACTIVITIES -0.2218
-4.7737 ACTIVITY -0.2218
-4.7737 ACTOR -0.2218
-4.7737 ACTORS -0.2218
-4.7737 ACTRESS -0.2218
-4.7737 ACTS -0.2218
-4.7737 ACTUAL -0.2218
-4.7737 ACTUALLY -0.2218
-4.7737 ACUTE -0.2218
-4.7737 AD -0.2218
-4.7737 ADA -0.2218
-4.7737 ADAM -0.2218
-4.7737 ADAMS -0.2218
-4.7737 ADAPTATION -0.2218
-4.7737 ADAPTED -0.2218
-4.7737 ADAPTER -0.2218
-4.7737 ADAPTERS -0.2218
-4.7737 ADAPTIVE -0.2218
-4.7737 ADAPTOR -0.2218
-4.7737 ADD -0.2218
-4.7737 ADDED -0.2218
-4.7737 ADDICTION -0.2218
-4.7737 ADDING -0.2218
-4.7737 ADDITION -0.2218
-4.7737 ADDITIONAL -0.2218
-4.7737 ADDITIONALLY -0.2218
-4.7737 ADDITIONS -0.2218
-4.7737 ADDRESS -0.2218
-4.7737 ADDRESSED -0.2218
-4.7737 ADDRESSES -0.2218
-4.7737 ADDRESSING -0.2218
-4.7737 ADDS -0.2218
-4.7737 ADELAIDE -0.2218
-4.7737 ADEQUATE -0.2218
-4.7737 ADIDAS -0.2218
-4.7737 ADIPEX -0.2218
-4.7737 ADJACENT -0.2218
-4.7737 ADJUST -0.2218
-4.7737 ADJUSTABLE -0.2218
-4.7737 ADJUSTED -0.2218
-4.7737 ADJUSTMENT -0.2218
-4.7737 ADJUSTMENTS -0.2218
-4.7737 ADMIN -0.2218
-4.7737 ADMINISTERED -0.2218
-4.7737 ADMINISTRATION -0.2218
-4.7737 ADMINISTRATIVE -0.2218
-4.7737 ADMINISTRATOR -0.2218
-4.7737 ADMINISTRATORS -0.2218
-4.7737 ADMISSION -0.2218
-4.7737 ADMISSIONS -0.2218
-4.7737 ADMIT -0.2218
-4.7737 ADMITTED -0.2218
-4.7737 ADOBE -0.2218
-4.7737 ADOLESCENT -0.2218
-4.7737 ADOPT -0.2218
-4.7737 ADOPTED -0.2218
-4.7737 ADOPTION -0.2218
-4.7737 ADRIAN -0.2218
-4.7737 ADS -0.2218
-4.7737 ADSL -0.2218
-4.7737 ADULT -0.2218
-4.7737 ADULTS -0.2218
-4.7737 ADVANCE -0.2218
-4.7737 ADVANCED -0.2218
-4.7737 ADVANCEMENT -0.2218
-4.7737 ADVANCES -0.2218
-4.7737 ADVANTAGE -0.2218
-4.7737 ADVANTAGES -0.2218
-4.7737 ADVENTURE -0.2218
-4.7737 ADVENTURES -0.2218
-4.7737 ADVERSE -0.2218
-4.7737 ADVERT -0.2218
-4.7737 ADVERTISE -0.2218
-4.7737 ADVERTISEMENT -0.2218
-4.7737 ADVERTISEMENTS -0.2218
-4.7737 ADVERTISER -0.2218
-4.7737 ADVERTISERS -0.2218
-4.7737 ADVERTISING -0.2218
-4.7737 ADVICE -0.2218
-4.7737 ADVISE -0.2218
-4.7737 ADVISED -0.2218
-4.7737 ADVISOR -0.2218
-4.7737 ADVISORS -0.2218
-4.7737 ADVISORY -0.2218
-4.7737 ADVOCACY -0.2218
-4.7737 ADVOCATE -0.2218
-4.7737 ADWARE -0.2218
-4.7737 AE -0.2218
-4.7737 AERIAL -0.2218
-4.7737 AEROSPACE -0.2218
-4.7737 AF -0.2218
-4.7737 AFFAIR -0.2218
-4.7737 AFFAIRS -0.2218
-4.7737 AFFECT -0.2218
-4.7737 AFFECTED -0.2218
-4.7737 AFFECTING -0.2218
-4.7737 AFFECTS -0.2218
-4.7737 AFFILIATE -0.2218
-4.7737 AFFILIATED -0.2218
-4.7737 AFFILIATES -0.2218
-4.7737 AFFILIATION -0.2218
-4.7737 AFFORD -0.2218
-4.7737 AFFORDABLE -0.2218
-4.7737 AFGHANISTAN -0.2218
-4.7737 AFRAID -0.2218
-4.7737 AFRICA -0.2218
-4.7737 AFRICAN -0.2218
-4.7737 AFTER -0.2218
-4.7737 AFTERNOON -0.2218
-4.7737 AFTERWARDS -0.2218
-4.7737 AG -0.2218
-4.7737 AGAIN -0.2218
-4.7737 AGAINST -0.2218
-4.7737 AGE -0.2218
-4.7737 AGED -0.2218
-4.7737 AGENCIES -0.2218
-4.7737 AGENCY -0.2218
-4.7737 AGENDA -0.2218
-4.7737 AGENT -0.2218
-4.7737 AGENTS -0.2218
-4.7737 AGES -0.2218
-4.7737 AGGREGATE -0.2218
-4.7737 AGGRESSIVE -0.2218
-4.7737 AGING -0.2218
-4.7737 AGO -0.2218
-4.7737 AGREE -0.2218
-4.7737 AGREED -0.2218
-4.7737 AGREEMENT -0.2218
-4.7737 AGREEMENTS -0.2218
-4.7737 AGREES -0.2218
-4.7737 AGRICULTURAL -0.2218
-4.7737 AGRICULTURE -0.2218
-4.7737 AH -0.2218
-4.7737 AHEAD -0.2218
-4.7737 AI -0.2218
-4.7737 AID -0.2218
-4.7737 AIDS -0.2218
-4.7737 AIM -0.2218
-4.7737 AIMED -0.2218
-4.7737 AIMS -0.2218
-4.7737 AIR -0.2218
-4.7737 AIRCRAFT -0.2218
-4.7737 AIRFARE -0.2218
-4.7737 AIRLINE -0.2218
-4.7737 AIRLINES -0.2218
-4.7737 AIRPLANE -0.2218
-4.7737 AIRPORT -0.2218
-4.7737 AIRPORTS -0.2218
-4.7737 AJ -0.2218
-4.7737 AK -0.2218
-4.7737 AKA -0.2218
-4.7737 AL -0.2218
-4.7737 ALA -0.2218
-4.7737 ALABAMA -0.2218
-4.7737 ALAN -0.2218
-4.7737 ALARM -0.2218
-4.7737 ALASKA -0.2218
-4.7737 ALBANIA -0.2218
-4.7737 ALBANY -0.2218
-4.7737 ALBERT -0.2218
-4.7737 ALBERTA -0.2218
-4.7737 ALBUM -0.2218
-4.7737 ALBUMS -0.2218
-4.7737 ALBUQUERQUE -0.2218
-4.7737 ALCOHOL -0.2218
-4.7737 ALERT -0.2218
-4.7737 ALERTS -0.2218
-4.7737 ALEX -0.2218
-4.7737 ALEXANDER -0.2218
-4.7737 ALEXANDRIA -0.2218
-4.7737 ALFRED -0.2218
-4.7737 ALGEBRA -0.2218
-4.7737 ALGERIA -0.2218
-4.7737 ALGORITHM -0.2218
-4.7737 ALGORITHMS -0.2218
-4.7737 ALI -0.2218
-4.7737 ALIAS -0.2218
-4.7737 ALICE -0.2218
-4.7737 ALIEN -0.2218
-4.7737 ALIGN -0.2218
-4.7737 ALIGNMENT -0.2218
-4.7737 ALIKE -0.2218
-4.7737 ALIVE -0.2218
-4.7737 ALL -0.2218
-4.7737 ALLAH -0.2218
-4.7737 ALLAN -0.2218
-4.7737 ALLEGED -0.2218
-4.7737 ALLEN -0.2218
-4.7737 ALLERGY -0.2218
-4.7737 ALLIANCE -0.2218
-4.7737 ALLIED -0.2218
-4.7737 ALLOCATED -0.2218
-4.7737 ALLOCATION -0.2218
-4.7737 ALLOW -0.2218
-4.7737 ALLOWANCE -0.2218
-4.7737 ALLOWED -0.2218
-4.7737 ALLOWING -0.2218
-4.7737 ALLOWS -0.2218
-4.7737 ALLOY -0.2218
-4.7737 ALMOST -0.2218
-4.7737 ALONE -0.2218
-4.7737 ALONG -0.2218
-4.7737 ALOT -0.2218
-4.7737 ALPHA -0.2218
-4.7737 ALPHABETICAL -0.2218
-4.7737 ALPINE -0.2218
-4.7737 ALREADY -0.2218
-4.7737 ALSO -0.2218
-4.7737 ALT -0.2218
-4.7737 ALTER -0.2218
-4.7737 ALTERED -0.2218
-4.7737 ALTERNATE -0.2218
-4.7737 ALTERNATIVE -0.2218
-4.7737 ALTERNATIVELY -0.2218
-4.7737 ALTERNATIVES -0.2218
-4.7737 ALTHOUGH -0.2218
-4.7737 ALTO -0.2218
-4.7737 ALUMINIUM -0.2218
-4.7737 ALUMINUM -0.2218
-4.7737 ALUMNI -0.2218
-4.7737 ALWAYS -0.2218
-4.7737 AM -0.2218
-4.7737 AMANDA -0.2218
-4.7737 AMATEUR -0.2218
-4.7737 AMAZING -0.2218
-4.7737 AMAZON -0.2218
-4.7737 AMBASSADOR -0.2218
-4.7737 AMBER -0.2218
-4.7737 AMBIEN -0.2218
-4.7737 AMBIENT -0.2218
-4.7737 AMD -0.2218
-4.7737 AMEND -0.2218
-4.7737 AMENDED -0.2218
-4.7737 AMENDMENT -0.2218
-4.7737 AMENDMENTS -0.2218
-4.7737 AMENITIES -0.2218
-4.7737 AMERICA -0.2218
-4.7737 AMERICAN -0.2218
-4.7737 AMERICANS -0.2218
-4.7737 AMERICAS -0.2218
-4.7737 AMINO -0.2218
-4.7737 AMONG -0.2218
-4.7737 AMONGST -0.2218
-4.7737 AMOUNT -0.2218
-4.7737 AMOUNTS -0.2218
-4.7737 AMP -0.2218
-4.7737 AMPLAND -0.2218
-4.7737 AMPLIFIER -0.2218
-4.7737 AMSTERDAM -0.2218
-4.7737 AMY -0.2218
-4.7737 AN -0.2218
-4.7737 ANA -0.2218
-4.7737 ANAHEIM -0.2218
-4.7737 ANALOG -0.2218
-4.7737 ANALYSES -0.2218
-4.7737 ANALYSIS -0.2218
-4.7737 ANALYST -0.2218
-4.7737 ANALYSTS -0.2218
-4.7737 ANALYTICAL -0.2218
-4.7737 ANALYZE -0.2218
-4.7737 ANALYZED -0.2218
-4.7737 ANATOMY -0.2218
-4.7737 ANCHOR -0.2218
-4.7737 ANCIENT -0.2218
-4.7737 AND -0.2218
-4.7737 ANDALE -0.2218
-4.7737 ANDERSON -0.2218
-4.7737 ANDORRA -0.2218
-4.7737 ANDREA -0.2218
-4.7737 ANDREAS -0.2218
-4.7737 ANDREW -0.2218
-4.7737 ANDREWS -0.2218
-4.7737 ANDY -0.2218
-4.7737 ANGEL -0.2218
-4.7737 ANGELA -0.2218
-4.7737 ANGELES -0.2218
-4.7737 ANGELS -0.2218
-4.7737 ANGER -0.2218
-4.7737 ANGLE -0.2218
-4.7737 ANGOLA -0.2218
-4.7737 ANGRY -0.2218
-4.7737 ANIMAL -0.2218
-4.7737 ANIMALS -0.2218
-4.7737 ANIMATED -0.2218
-4.7737 ANIMATION -0.2218
-4.7737 ANIME -0.2218
-4.7737 ANN -0.2218
-4.7737 ANNA -0.2218
-4.7737 ANNE -0.2218
-4.7737 ANNEX -0.2218
-4.7737 ANNIE -0.2218
-4.7737 ANNIVERSARY -0.2218
-4.7737 ANNOTATED -0.2218
-4.7737 ANNOTATION -0.2218
-4.7737 ANNOUNCE -0.2218
-4.7737 ANNOUNCED -0.2218
-4.7737 ANNOUNCEMENT -0.2218
-4.7737 ANNOUNCEMENTS -0.2218
-4.7737 ANNOUNCES -0.2218
-4.7737 ANNOYING -0.2218
-4.7737 ANNUAL -0.2218
-4.7737 ANNUALLY -0.2218
-4.7737 ANONYMOUS -0.2218
-4.7737 ANOTHER -0.2218
-4.7737 ANSWER -0.2218
-4.7737 ANSWERED -0.2218
-4.7737 ANSWERING -0.2218
-4.7737 ANSWERS -0.2218
-4.7737 ANT -0.2218
-4.7737 ANTARCTICA -0.2218
-4.7737 ANTENNA -0.2218
-4.7737 ANTHONY -0.2218
-4.7737 ANTHROPOLOGY -0.2218
-4.7737 ANTI -0.2218
-4.7737 ANTIBODIES -0.2218
-4.7737 ANTIBODY -0.2218
-4.7737 ANTICIPATED -0.2218
-4.7737 ANTIGUA -0.2218
-4.7737 ANTIQUE -0.2218
-4.7737 ANTIQUES -0.2218
-4.7737 ANTIVIRUS -0.2218
-4.7737 ANTONIO -0.2218
-4.7737 ANXIETY -0.2218
-4.7737 ANY -0.2218
-4.7737 ANYBODY -0.2218
-4.7737 ANYMORE -0.2218
-4.7737 ANYONE -0.2218
-4.7737 ANYTHING -0.2218
-4.7737 ANYTIME -0.2218
-4.7737 ANYWAY -0.2218
-4.7737 ANYWHERE -0.2218
-4.7737 AOL -0.2218
-4.7737 AP -0.2218
-4.7737 APACHE -0.2218
-4.7737 APART -0.2218
-4.7737 APARTMENT -0.2218
-4.7737 APARTMENTS -0.2218
-4.7737 API -0.2218
-4.7737 APNIC -0.2218
-4.7737 APOLLO -0.2218
-4.7737 APP -0.2218
-4.7737 APPARATUS -0.2218
-4.7737 APPAREL -0.2218
-4.7737 APPARENT -0.2218
-4.7737 APPARENTLY -0.2218
-4.7737 APPEAL -0.2218
-4.7737 APPEALS -0.2218
-4.7737 APPEAR -0.2218
-4.7737 APPEARANCE -0.2218
-4.7737 APPEARED -0.2218
-4.7737 APPEARING -0.2218
-4.7737 APPEARS -0.2218
-4.7737 APPENDIX -0.2218
-4.7737 APPLE -0.2218
-4.7737 APPLIANCE -0.2218
-4.7737 APPLIANCES -0.2218
-4.7737 APPLICABLE -0.2218
-4.7737 APPLICANT -0.2218
-4.7737 APPLICANTS -0.2218
-4.7737 APPLICATION -0.2218
-4.7737 APPLICATIONS -0.2218
-4.7737 APPLIED -0.2218
-4.7737 APPLIES -0.2218
-4.7737 APPLY -0.2218
-4.7737 APPLYING -0.2218
-4.7737 APPOINTED -0.2218
-4.7737 APPOINTMENT -0.2218
-4.7737 APPOINTMENTS -0.2218
-4.7737 APPRAISAL -0.2218
-4.7737 APPRECIATE -0.2218
-4.7737 APPRECIATED -0.2218
-4.7737 APPRECIATION -0.2218
-4.7737 APPROACH -0.2218
-4.7737 APPROACHES -0.2218
-4.7737 APPROPRIATE -0.2218
-4.7737 APPROPRIATIONS -0.2218
-4.7737 APPROVAL -0.2218
-4.7737 APPROVE -0.2218
-4.7737 APPROVED -0.2218
-4.7737 APPROX -0.2218
-4.7737 APPROXIMATE -0.2218
-4.7737 APPROXIMATELY -0.2218
-4.7737 APPS -0.2218
-4.7737 APR -0.2218
-4.7737 APRIL -0.2218
-4.7737 APT -0.2218
-4.7737 AQUA -0.2218
-4.7737 AQUARIUM -0.2218
-4.7737 AQUATIC -0.2218
-4.7737 AR -0.2218
-4.7737 ARAB -0.2218
-4.7737 ARABIA -0.2218
-4.7737 ARABIC -0.2218
-4.7737 ARBITRARY -0.2218
-4.7737 ARBITRATION -0.2218
-4.7737 ARBOR -0.2218
-4.7737 ARC -0.2218
-4.7737 ARCADE -0.2218
-4.7737 ARCH -0.2218
-4.7737 ARCHITECT -0.2218
-4.7737 ARCHITECTS -0.2218
-4.7737 ARCHITECTURAL -0.2218
-4.7737 ARCHITECTURE -0.2218
-4.7737 ARCHIVE -0.2218
-4.7737 ARCHIVED -0.2218
-4.7737 ARCHIVES -0.2218
-4.7737 ARCTIC -0.2218
-4.7737 ARE -0.2218
-4.7737 AREA -0.2218
-4.7737 AREAS -0.2218
-4.7737 ARENA -0.2218
-4.7737 ARG -0.2218
-4.7737 ARGENTINA -0.2218
-4.7737 ARGUE -0.2218
-4.7737 ARGUED -0.2218
-4.7737 ARGUMENT -0.2218
-4.7737 ARGUMENTS -0.2218
-4.7737 ARISE -0.2218
-4.7737 ARISING -0.2218
-4.7737 ARIZONA -0.2218
-4.7737 ARKANSAS -0.2218
-4.7737 ARLINGTON -0.2218
-4.7737 ARM -0.2218
-4.7737 ARMED -0.2218
-4.7737 ARMENIA -0.2218
-4.7737 ARMOR -0.2218
-4.7737 ARMS -0.2218
-4.7737 ARMSTRONG -0.2218
-4.7737 ARMY -0.2218
-4.7737 ARNOLD -0.2218
-4.7737 AROUND -0.2218
-4.7737 ARRANGE -0.2218
-4.7737 ARRANGED -0.2218
-4.7737 ARRANGEMENT -0.2218
-4.7737 ARRANGEMENTS -0.2218
-4.7737 ARRAY -0.2218
-4.7737 ARREST -0.2218
-4.7737 ARRESTED -0.2218
-4.7737 ARRIVAL -0.2218
-4.7737 ARRIVALS -0.2218
-4.7737 ARRIVE -0.2218
-4.7737 ARRIVED -0.2218
-4.7737 ARRIVES -0.2218
-4.7737 ARROW -0.2218
-4.7737 ART -0.2218
-4.7737 ARTHRITIS -0.2218
-4.7737 ARTHUR -0.2218
-4.7737 ARTICLE -0.2218
-4.7737 ARTICLES -0.2218
-4.7737 ARTIFICIAL -0.2218
-4.7737 ARTIST -0.2218
-4.7737 ARTISTIC -0.2218
-4.7737 ARTISTS -0.2218
-4.7737 ARTS -0.2218
-4.7737 ARTWORK -0.2218
-4.7737 ARUBA -0.2218
-4.7737 AS -0.2218
-4.7737 ASBESTOS -0.2218
-4.7737 ASCII -0.2218
-4.7737 ASH -0.2218
-4.7737 ASHLEY -0.2218
-4.7737 ASIA -0.2218
-4.7737 ASIAN -0.2218
-4.7737 ASIDE -0.2218
-4.7737 ASIN -0.2218
-4.7737 ASK -0.2218
-4.7737 ASKED -0.2218
-4.7737 ASKING -0.2218
-4.7737 ASKS -0.2218
-4.7737 ASN -0.2218
-4.7737 ASP -0.2218
-4.7737 ASPECT -0.2218
-4.7737 ASPECTS -0.2218
-4.7737 ASSAULT -0.2218
-4.7737 ASSEMBLED -0.2218
-4.7737 ASSEMBLY -0.2218
-4.7737 ASSESS -0.2218
-4.7737 ASSESSED -0.2218
-4.7737 ASSESSING -0.2218
-4.7737 ASSESSMENT -0.2218
-4.7737 ASSESSMENTS -0.2218
-4.7737 ASSET -0.2218
-4.7737 ASSETS -0.2218
-4.7737 ASSIGN -0.2218
-4.7737 ASSIGNED -0.2218
-4.7737 ASSIGNMENT -0.2218
-4.7737 ASSIGNMENTS -0.2218
-4.7737 ASSIST -0.2218
-4.7737 ASSISTANCE -0.2218
-4.7737 ASSISTANT -0.2218
-4.7737 ASSISTED -0.2218
-4.7737 ASSISTS -0.2218
-4.7737 ASSOCIATE -0.2218
-4.7737 ASSOCIATED -0.2218
-4.7737 ASSOCIATES -0.2218
-4.7737 ASSOCIATION -0.2218
-4.7737 ASSOCIATIONS -0.2218
-4.7737 ASSUME -0.2218
-4.7737 ASSUMED -0.2218
-4.7737 ASSUMES -0.2218
-4.7737 ASSUMING -0.2218
-4.7737 ASSUMPTION -0.2218
-4.7737 ASSUMPTIONS -0.2218
-4.7737 ASSURANCE -0.2218
-4.7737 ASSURE -0.2218
-4.7737 ASSURED -0.2218
-4.7737 ASTHMA -0.2218
-4.7737 ASTROLOGY -0.2218
-4.7737 ASTRONOMY -0.2218
-4.7737 ASUS -0.2218
-4.7737 ASYLUM -0.2218
-4.7737 AT -0.2218
-4.7737 ATA -0.2218
-4.7737 ATE -0.2218
-4.7737 ATHENS -0.2218
-4.7737 ATHLETES -0.2218
-4.7737 ATHLETIC -0.2218
-4.7737 ATHLETICS -0.2218
-4.7737 ATI -0.2218
-4.7737 ATLANTA -0.2218
-4.7737 ATLANTIC -0.2218
-4.7737 ATLAS -0.2218
-4.7737 ATM -0.2218
-4.7737 ATMOSPHERE -0.2218
-4.7737 ATMOSPHERIC -0.2218
-4.7737 ATOM -0.2218
-4.7737 ATOMIC -0.2218
-4.7737 ATTACH -0.2218
-4.7737 ATTACHED -0.2218
-4.7737 ATTACHMENT -0.2218
-4.7737 ATTACHMENTS -0.2218
-4.7737 ATTACK -0.2218
-4.7737 ATTACKED -0.2218
-4.7737 ATTACKS -0.2218
-4.7737 ATTEMPT -0.2218
-4.7737 ATTEMPTED -0.2218
-4.7737 ATTEMPTING -0.2218
-4.7737 ATTEMPTS -0.2218
-4.7737 ATTEND -0.2218
-4.7737 ATTENDANCE -0.2218
-4.7737 ATTENDED -0.2218
-4.7737 ATTENDING -0.2218
-4.7737 ATTENTION -0.2218
-4.7737 ATTITUDE -0.2218
-4.7737 ATTITUDES -0.2218
-4.7737 ATTORNEY -0.2218
-4.7737 ATTORNEYS -0.2218
-4.7737 ATTRACT -0.2218
-4.7737 ATTRACTION -0.2218
-4.7737 ATTRACTIONS -0.2218
-4.7737 ATTRACTIVE -0.2218
-4.7737 ATTRIBUTE -0.2218
-4.7737 ATTRIBUTES -0.2218
-4.7737 AU -0.2218
-4.7737 AUBURN -0.2218
-4.7737 AUCKLAND -0.2218
-4.7737 AUCTION -0.2218
-4.7737 AUCTIONS -0.2218
-4.7737 AUD -0.2218
-4.7737 AUDI -0.2218
-4.7737 AUDIENCE -0.2218
-4.7737 AUDIO -0.2218
-4.7737 AUDIT -0.2218
-4.7737 AUDITOR -0.2218
-4.7737 AUG -0.2218
-4.7737 AUGUST -0.2218
-4.7737 AURORA -0.2218
-4.7737 AUS -0.2218
-4.7737 AUSTIN -0.2218
-4.7737 AUSTRALIA -0.2218
-4.7737 AUSTRALIAN -0.2218
-4.7737 AUSTRIA -0.2218
-4.7737 AUTHENTIC -0.2218
-4.7737 AUTHENTICATION -0.2218
-4.7737 AUTHOR -0.2218
-4.7737 AUTHORITIES -0.2218
-4.7737 AUTHORITY -0.2218
-4.7737 AUTHORIZATION -0.2218
-4.7737 AUTHORIZED -0.2218
-4.7737 AUTHORS -0.2218
-4.7737 AUTO -0.2218
-4.7737 AUTOMATED -0.2218
-4.7737 AUTOMATIC -0.2218
-4.7737 AUTOMATICALLY -0.2218
-4.7737 AUTOMATION -0.2218
-4.7737 AUTOMOBILE -0.2218
-4.7737 AUTOMOBILES -0.2218
-4.7737 AUTOMOTIVE -0.2218
-4.7737 AUTOS -0.2218
-4.7737 AUTUMN -0.2218
-4.7737 AV -0.2218
-4.7737 AVAILABILITY -0.2218
-4.7737 AVAILABLE -0.2218
-4.7737 AVATAR -0.2218
-4.7737 AVE -0.2218
-4.7737 AVENUE -0.2218
-4.7737 AVERAGE -0.2218
-4.7737 AVG -0.2218
-4.7737 AVI -0.2218
-4.7737 AVIATION -0.2218
-4.7737 AVOID -0.2218
-4.7737 AVOIDING -0.2218
-4.7737 AVON -0.2218
-4.7737 AW -0.2218
-4.7737 AWARD -0.2218
-4.7737 AWARDED -0.2218
-4.7737 AWARDS -0.2218
-4.7737 AWARE -0.2218
-4.7737 AWARENESS -0.2218
-4.7737 AWAY -0.2218
-4.7737 AWESOME -0.2218
-4.7737 AWFUL -0.2218
-4.7737 AXIS -0.2218
-4.7737 AYE -0.2218
-4.7737 AZ -0.2218
-4.7737 AZERBAIJAN -0.2218
-4.7737 B -0.2218
-4.7737 BA -0.2218
-4.7737 BABE -0.2218
-4.7737 BABES -0.2218
-4.7737 BABIES -0.2218
-4.7737 BABY -0.2218
-4.7737 BACHELOR -0.2218
-4.7737 BACK -0.2218
-4.7737 BACKED -0.2218
-4.7737 BACKGROUND -0.2218
-4.7737 BACKGROUNDS -0.2218
-4.7737 BACKING -0.2218
-4.7737 BACKUP -0.2218
-4.7737 BACON -0.2218
-4.7737 BACTERIA -0.2218
-4.7737 BACTERIAL -0.2218
-4.7737 BAD -0.2218
-4.7737 BADGE -0.2218
-4.7737 BADLY -0.2218
-4.7737 BAG -0.2218
-4.7737 BAGHDAD -0.2218
-4.7737 BAGS -0.2218
-4.7737 BAHAMAS -0.2218
-4.7737 BAHRAIN -0.2218
-4.7737 BAILEY -0.2218
-4.7737 BAKER -0.2218
-4.7737 BAKING -0.2218
-4.7737 BALANCE -0.2218
-4.7737 BALANCED -0.2218
-4.7737 BALD -0.2218
-4.7737 BALI -0.2218
-4.7737 BALL -0.2218
-4.7737 BALLET -0.2218
-4.7737 BALLOON -0.2218
-4.7737 BALLOT -0.2218
-4.7737 BALTIMORE -0.2218
-4.7737 BAN -0.2218
-4.7737 BANANA -0.2218
-4.7737 BAND -0.2218
-4.7737 BANDS -0.2218
-4.7737 BANDWIDTH -0.2218
-4.7737 BANG -0.2218
-4.7737 BANGKOK -0.2218
-4.7737 BANGLADESH -0.2218
-4.7737 BANK -0.2218
-4.7737 BANKING -0.2218
-4.7737 BANKRUPTCY -0.2218
-4.7737 BANKS -0.2218
-4.7737 BANNED -0.2218
-4.7737 BANNER -0.2218
-4.7737 BANNERS -0.2218
-4.7737 BAPTIST -0.2218
-4.7737 BAR -0.2218
-4.7737 BARBADOS -0.2218
-4.7737 BARBARA -0.2218
-4.7737 BARBIE -0.2218
-4.7737 BARCELONA -0.2218
-4.7737 BARE -0.2218
-4.7737 BARELY -0.2218
-4.7737 BARGAIN -0.2218
-4.7737 BARGAINS -0.2218
-4.7737 BARN -0.2218
-4.7737 BARNES -0.2218
-4.7737 BARREL -0.2218
-4.7737 BARRIER -0.2218
-4.7737 BARRIERS -0.2218
-4.7737 BARRY -0.2218
-4.7737 BARS -0.2218
-4.7737 BASE -0.2218
-4.7737 BASEBALL -0.2218
-4.7737 BASED -0.2218
-4.7737 BASELINE -0.2218
-4.7737 BASEMENT -0.2218
-4.7737 BASENAME -0.2218
-4.7737 BASES -0.2218
-4.7737 BASIC -0.2218
-4.7737 BASICALLY -0.2218
-4.7737 BASICS -0.2218
-4.7737 BASIN -0.2218
-4.7737 BASIS -0.2218
-4.7737 BASKET -0.2218
-4.7737 BASKETBALL -0.2218
-4.7737 BASKETS -0.2218
-4.7737 BASS -0.2218
-4.7737 BAT -0.2218
-4.7737 BATCH -0.2218
-4.7737 BATH -0.2218
-4.7737 BATHROOM -0.2218
-4.7737 BATHROOMS -0.2218
-4.7737 BATHS -0.2218
-4.7737 BATMAN -0.2218
-4.7737 BATTERIES -0.2218
-4.7737 BATTERY -0.2218
-4.7737 BATTLE -0.2218
-4.7737 BATTLEFIELD -0.2218
-4.7737 BAY -0.2218
-4.7737 BB -0.2218
-4.7737 BBC -0.2218
-4.7737 BBS -0.2218
-4.7737 BC -0.2218
-4.7737 BD -0.2218
-4.7737 BE -0.2218
-4.7737 BEACH -0.2218
-4.7737 BEACHES -0.2218
-4.7737 BEADS -0.2218
-4.7737 BEAM -0.2218
-4.7737 BEAN -0.2218
-4.7737 BEANS -0.2218
-4.7737 BEAR -0.2218
-4.7737 BEARING -0.2218
-4.7737 BEARS -0.2218
-4.7737 BEAST -0.2218
-4.7737 BEASTALITY -0.2218
-4.7737 BEAT -0.2218
-4.7737 BEATLES -0.2218
-4.7737 BEATS -0.2218
-4.7737 BEAUTIFUL -0.2218
-4.7737 BEAUTIFULLY -0.2218
-4.7737 BEAUTY -0.2218
-4.7737 BEAVER -0.2218
-4.7737 BECAME -0.2218
-4.7737 BECAUSE -0.2218
-4.7737 BECOME -0.2218
-4.7737 BECOMES -0.2218
-4.7737 BECOMING -0.2218
-4.7737 BED -0.2218
-4.7737 BEDDING -0.2218
-4.7737 BEDFORD -0.2218
-4.7737 BEDROOM -0.2218
-4.7737 BEDROOMS -0.2218
-4.7737 BEDS -0.2218
-4.7737 BEE -0.2218
-4.7737 BEEF -0.2218
-4.7737 BEEN -0.2218
-4.7737 BEER -0.2218
-4.7737 BEFORE -0.2218
-4.7737 BEGAN -0.2218
-4.7737 BEGIN -0.2218
-4.7737 BEGINNER -0.2218
-4.7737 BEGINNERS -0.2218
-4.7737 BEGINNING -0.2218
-4.7737 BEGINS -0.2218
-4.7737 BEGUN -0.2218
-4.7737 BEHALF -0.2218
-4.7737 BEHAVIOR -0.2218
-4.7737 BEHAVIORAL -0.2218
-4.7737 BEHAVIOUR -0.2218
-4.7737 BEHIND -0.2218
-4.7737 BEIJING -0.2218
-4.7737 BEING -0.2218
-4.7737 BEINGS -0.2218
-4.7737 BELARUS -0.2218
-4.7737 BELFAST -0.2218
-4.7737 BELGIUM -0.2218
-4.7737 BELIEF -0.2218
-4.7737 BELIEFS -0.2218
-4.7737 BELIEVE -0.2218
-4.7737 BELIEVED -0.2218
-4.7737 BELIEVES -0.2218
-4.7737 BELIZE -0.2218
-4.7737 BELKIN -0.2218
-4.7737 BELL -0.2218
-4.7737 BELLE -0.2218
-4.7737 BELLY -0.2218
-4.7737 BELONG -0.2218
-4.7737 BELONGS -0.2218
-4.7737 BELOW -0.2218
-4.7737 BELT -0.2218
-4.7737 BELTS -0.2218
-4.7737 BEN -0.2218
-4.7737 BENCH -0.2218
-4.7737 BENCHMARK -0.2218
-4.7737 BEND -0.2218
-4.7737 BENEATH -0.2218
-4.7737 BENEFICIAL -0.2218
-4.7737 BENEFIT -0.2218
-4.7737 BENEFITS -0.2218
-4.7737 BENJAMIN -0.2218
-4.7737 BENNETT -0.2218
-4.7737 BENT -0.2218
-4.7737 BENZ -0.2218
-4.7737 BERKELEY -0.2218
-4.7737 BERLIN -0.2218
-4.7737 BERMUDA -0.2218
-4.7737 BERNARD -0.2218
-4.7737 BERRY -0.2218
-4.7737 BESIDE -0.2218
-4.7737 BESIDES -0.2218
-4.7737 BEST -0.2218
-4.7737 BESTSELLERS -0.2218
-4.7737 BET -0.2218
-4.7737 BETA -0.2218
-4.7737 BETH -0.2218
-4.7737 BETTER -0.2218
-4.7737 BETTING -0.2218
-4.7737 BETTY -0.2218
-4.7737 BETWEEN -0.2218
-4.7737 BEVERAGE -0.2218
-4.7737 BEVERAGES -0.2218
-4.7737 BEVERLY -0.2218
-4.7737 BEYOND -0.2218
-4.7737 BG -0.2218
-4.7737 BHUTAN -0.2218
-4.7737 BI -0.2218
-4.7737 BIAS -0.2218
-4.7737 BIBLE -0.2218
-4.7737 BIBLICAL -0.2218
-4.7737 BIBLIOGRAPHIC -0.2218
-4.7737 BIBLIOGRAPHY -0.2218
-4.7737 BICYCLE -0.2218
-4.7737 BID -0.2218
-4.7737 BIDDER -0.2218
-4.7737 BIDDING -0.2218
-4.7737 BIDS -0.2218
-4.7737 BIG -0.2218
-4.7737 BIGGER -0.2218
-4.7737 BIGGEST -0.2218
-4.7737 BIKE -0.2218
-4.7737 BIKES -0.2218
-4.7737 BIKINI -0.2218
-4.7737 BILL -0.2218
-4.7737 BILLING -0.2218
-4.7737 BILLION -0.2218
-4.7737 BILLS -0.2218
-4.7737 BILLY -0.2218
-4.7737 BIN -0.2218
-4.7737 BINARY -0.2218
-4.7737 BIND -0.2218
-4.7737 BINDING -0.2218
-4.7737 BINGO -0.2218
-4.7737 BIO -0.2218
-4.7737 BIODIVERSITY -0.2218
-4.7737 BIOGRAPHIES -0.2218
-4.7737 BIOGRAPHY -0.2218
-4.7737 BIOL -0.2218
-4.7737 BIOLOGICAL -0.2218
-4.7737 BIOLOGY -0.2218
-4.7737 BIOS -0.2218
-4.7737 BIOTECHNOLOGY -0.2218
-4.7737 BIRD -0.2218
-4.7737 BIRDS -0.2218
-4.7737 BIRMINGHAM -0.2218
-4.7737 BIRTH -0.2218
-4.7737 BIRTHDAY -0.2218
-4.7737 BISHOP -0.2218
-4.7737 BIT -0.2218
-4.7737 BITE -0.2218
-4.7737 BITS -0.2218
-4.7737 BIZ -0.2218
-4.7737 BIZARRE -0.2218
-4.7737 BIZRATE -0.2218
-4.7737 BK -0.2218
-4.7737 BL -0.2218
-4.7737 BLACK -0.2218
-4.7737 BLACKBERRY -0.2218
-4.7737 BLACKJACK -0.2218
-4.7737 BLACKS -0.2218
-4.7737 BLADE -0.2218
-4.7737 BLADES -0.2218
-4.7737 BLAH -0.2218
-4.7737 BLAIR -0.2218
-4.7737 BLAKE -0.2218
-4.7737 BLAME -0.2218
-4.7737 BLANK -0.2218
-4.7737 BLANKET -0.2218
-4.7737 BLAST -0.2218
-4.7737 BLEEDING -0.2218
-4.7737 BLEND -0.2218
-4.7737 BLESS -0.2218
-4.7737 BLESSED -0.2218
-4.7737 BLIND -0.2218
-4.7737 BLINK -0.2218
-4.7737 BLOCK -0.2218
-4.7737 BLOCKED -0.2218
-4.7737 BLOCKING -0.2218
-4.7737 BLOCKS -0.2218
-4.7737 BLOG -0.2218
-4.7737 BLOGGER -0.2218
-4.7737 BLOGGERS -0.2218
-4.7737 BLOGGING -0.2218
-4.7737 BLOGS -0.2218
-4.7737 BLOND -0.2218
-4.7737 BLONDE -0.2218
-4.7737 BLOOD -0.2218
-4.7737 BLOOM -0.2218
-4.7737 BLOOMBERG -0.2218
-4.7737 BLOW -0.2218
-4.7737 BLOWING -0.2218
-4.7737 BLUE -0.2218
-4.7737 BLUES -0.2218
-4.7737 BLUETOOTH -0.2218
-4.7737 BLVD -0.2218
-4.7737 BM -0.2218
-4.7737 BMW -0.2218
-4.7737 BO -0.2218
-4.7737 BOARD -0.2218
-4.7737 BOARDS -0.2218
-4.7737 BOAT -0.2218
-4.7737 BOATING -0.2218
-4.7737 BOATS -0.2218
-4.7737 BOB -0.2218
-4.7737 BOBBY -0.2218
-4.7737 BOC -0.2218
-4.7737 BODIES -0.2218
-4.7737 BODY -0.2218
-4.7737 BOLD -0.2218
-4.7737 BOLIVIA -0.2218
-4.7737 BOLT -0.2218
-4.7737 BOMB -0.2218
-4.7737 BON -0.2218
-4.7737 BOND -0.2218
-4.7737 BONDS -0.2218
-4.7737 BONE -0.2218
-4.7737 BONES -0.2218
-4.7737 BONUS -0.2218
-4.7737 BOOK -0.2218
-4.7737 BOOKING -0.2218
-4.7737 BOOKINGS -0.2218
-4.7737 BOOKMARK -0.2218
-4.7737 BOOKMARKS -0.2218
-4.7737 BOOKS -0.2218
-4.7737 BOOKSTORE -0.2218
-4.7737 BOOL -0.2218
-4.7737 BOOLEAN -0.2218
-4.7737 BOOM -0.2218
-4.7737 BOOST -0.2218
-4.7737 BOOT -0.2218
-4.7737 BOOTH -0.2218
-4.7737 BOOTS -0.2218
-4.7737 BOOTY -0.2218
-4.7737 BORDER -0.2218
-4.7737 BORDERS -0.2218
-4.7737 BORED -0.2218
-4.7737 BORING -0.2218
-4.7737 BORN -0.2218
-4.7737 BOROUGH -0.2218
-4.7737 BOSNIA -0.2218
-4.7737 BOSS -0.2218
-4.7737 BOSTON -0.2218
-4.7737 BOTH -0.2218
-4.7737 BOTHER -0.2218
-4.7737 BOTSWANA -0.2218
-4.7737 BOTTLE -0.2218
-4.7737 BOTTLES -0.2218
-4.7737 BOTTOM -0.2218
-4.7737 BOUGHT -0.2218
-4.7737 BOULDER -0.2218
-4.7737 BOULEVARD -0.2218
-4.7737 BOUND -0.2218
-4.7737 BOUNDARIES -0.2218
-4.7737 BOUNDARY -0.2218
-4.7737 BOUQUET -0.2218
-4.7737 BOUTIQUE -0.2218
-4.7737 BOW -0.2218
-4.7737 BOWL -0.2218
-4.7737 BOWLING -0.2218
-4.7737 BOX -0.2218
-4.7737 BOXED -0.2218
-4.7737 BOXES -0.2218
-4.7737 BOXING -0.2218
-4.7737 BOY -0.2218
-4.7737 BOYS -0.2218
-4.7737 BP -0.2218
-4.7737 BR -0.2218
-4.7737 BRA -0.2218
-4.7737 BRACELET -0.2218
-4.7737 BRACELETS -0.2218
-4.7737 BRACKET -0.2218
-4.7737 BRAD -0.2218
-4.7737 BRADFORD -0.2218
-4.7737 BRADLEY -0.2218
-4.7737 BRAIN -0.2218
-4.7737 BRAKE -0.2218
-4.7737 BRAKES -0.2218
-4.7737 BRANCH -0.2218
-4.7737 BRANCHES -0.2218
-4.7737 BRAND -0.2218
-4.7737 BRANDON -0.2218
-4.7737 BRANDS -0.2218
-4.7737 BRAS -0.2218
-4.7737 BRASS -0.2218
-4.7737 BRAVE -0.2218
-4.7737 BRAZIL -0.2218
-4.7737 BRAZILIAN -0.2218
-4.7737 BREACH -0.2218
-4.7737 BREAD -0.2218
-4.7737 BREAK -0.2218
-4.7737 BREAKDOWN -0.2218
-4.7737 BREAKFAST -0.2218
-4.7737 BREAKING -0.2218
-4.7737 BREAKS -0.2218
-4.7737 BREAST -0.2218
-4.7737 BREATH -0.2218
-4.7737 BREATHING -0.2218
-4.7737 BREED -0.2218
-4.7737 BREEDING -0.2218
-4.7737 BREEDS -0.2218
-4.7737 BRIAN -0.2218
-4.7737 BRICK -0.2218
-4.7737 BRIDAL -0.2218
-4.7737 BRIDE -0.2218
-4.7737 BRIDGE -0.2218
-4.7737 BRIDGES -0.2218
-4.7737 BRIEF -0.2218
-4.7737 BRIEFING -0.2218
-4.7737 BRIEFLY -0.2218
-4.7737 BRIEFS -0.2218
-4.7737 BRIGHT -0.2218
-4.7737 BRIGHTON -0.2218
-4.7737 BRILLIANT -0.2218
-4.7737 BRING -0.2218
-4.7737 BRINGING -0.2218
-4.7737 BRINGS -0.2218
-4.7737 BRISBANE -0.2218
-4.7737 BRISTOL -0.2218
-4.7737 BRITAIN -0.2218
-4.7737 BRITANNICA -0.2218
-4.7737 BRITISH -0.2218
-4.7737 BRITNEY -0.2218
-4.7737 BROAD -0.2218
-4.7737 BROADBAND -0.2218
-4.7737 BROADCAST -0.2218
-4.7737 BROADCASTING -0.2218
-4.7737 BROADER -0.2218
-4.7737 BROADWAY -0.2218
-4.7737 BROCHURE -0.2218
-4.7737 BROCHURES -0.2218
-4.7737 BROKE -0.2218
-4.7737 BROKEN -0.2218
-4.7737 BROKER -0.2218
-4.7737 BROKERS -0.2218
-4.7737 BRONZE -0.2218
-4.7737 BROOK -0.2218
-4.7737 BROOKLYN -0.2218
-4.7737 BROOKS -0.2218
-4.7737 BROTHER -0.2218
-4.7737 BROTHERS -0.2218
-4.7737 BROUGHT -0.2218
-4.7737 BROWN -0.2218
-4.7737 BROWSE -0.2218
-4.7737 BROWSER -0.2218
-4.7737 BROWSERS -0.2218
-4.7737 BROWSING -0.2218
-4.7737 BRUCE -0.2218
-4.7737 BRUNEI -0.2218
-4.7737 BRUNETTE -0.2218
-4.7737 BRUNSWICK -0.2218
-4.7737 BRUSH -0.2218
-4.7737 BRUSSELS -0.2218
-4.7737 BRUTAL -0.2218
-4.7737 BRYAN -0.2218
-4.7737 BRYANT -0.2218
-4.7737 BS -0.2218
-4.7737 BT -0.2218
-4.7737 BUBBLE -0.2218
-4.7737 BUCK -0.2218
-4.7737 BUCKS -0.2218
-4.7737 BUDAPEST -0.2218
-4.7737 BUDDY -0.2218
-4.7737 BUDGET -0.2218
-4.7737 BUDGETS -0.2218
-4.7737 BUF -0.2218
-4.7737 BUFFALO -0.2218
-4.7737 BUFFER -0.2218
-4.7737 BUFING -0.2218
-4.7737 BUG -0.2218
-4.7737 BUGS -0.2218
-4.7737 BUILD -0.2218
-4.7737 BUILDER -0.2218
-4.7737 BUILDERS -0.2218
-4.7737 BUILDING -0.2218
-4.7737 BUILDINGS -0.2218
-4.7737 BUILDS -0.2218
-4.7737 BUILT -0.2218
-4.7737 BULGARIA -0.2218
-4.7737 BULGARIAN -0.2218
-4.7737 BULK -0.2218
-4.7737 BULL -0.2218
-4.7737 BULLET -0.2218
-4.7737 BULLETIN -0.2218
-4.7737 BUMPER -0.2218
-4.7737 BUNCH -0.2218
-4.7737 BUNDLE -0.2218
-4.7737 BUNNY -0.2218
-4.7737 BURDEN -0.2218
-4.7737 BUREAU -0.2218
-4.7737 BURIED -0.2218
-4.7737 BURKE -0.2218
-4.7737 BURLINGTON -0.2218
-4.7737 BURN -0.2218
-4.7737 BURNER -0.2218
-4.7737 BURNING -0.2218
-4.7737 BURNS -0.2218
-4.7737 BURST -0.2218
-4.7737 BURTON -0.2218
-4.7737 BUS -0.2218
-4.7737 BUSES -0.2218
-4.7737 BUSH -0.2218
-4.7737 BUSINESS -0.2218
-4.7737 BUSINESSES -0.2218
-4.7737 BUSY -0.2218
-4.7737 BUT -0.2218
-4.7737 BUTLER -0.2218
-4.7737 BUTTER -0.2218
-4.7737 BUTTERFLY -0.2218
-4.7737 BUTTON -0.2218
-4.7737 BUTTONS -0.2218
-4.7737 BUTTS -0.2218
-4.7737 BUY -0.2218
-4.7737 BUYER -0.2218
-4.7737 BUYERS -0.2218
-4.7737 BUYING -0.2218
-4.7737 BUYS -0.2218
-4.7737 BUZZ -0.2218
-4.7737 BW -0.2218
-4.7737 BY -0.2218
-4.7737 BYE -0.2218
-4.7737 BYTE -0.2218
-4.7737 BYTES -0.2218
-4.7737 C -0.2218
-4.7737 CA -0.2218
-4.7737 CAB -0.2218
-4.7737 CABIN -0.2218
-4.7737 CABINET -0.2218
-4.7737 CABINETS -0.2218
-4.7737 CABLE -0.2218
-4.7737 CABLES -0.2218
-4.7737 CACHE -0.2218
-4.7737 CACHED -0.2218
-4.7737 CAD -0.2218
-4.7737 CADILLAC -0.2218
-4.7737 CAFE -0.2218
-4.7737 CAGE -0.2218
-4.7737 CAKE -0.2218
-4.7737 CAKES -0.2218
-4.7737 CAL -0.2218
-4.7737 CALCIUM -0.2218
-4.7737 CALCULATE -0.2218
-4.7737 CALCULATED -0.2218
-4.7737 CALCULATION -0.2218
-4.7737 CALCULATIONS -0.2218
-4.7737 CALCULATOR -0.2218
-4.7737 CALCULATORS -0.2218
-4.7737 CALENDAR -0.2218
-4.7737 CALENDARS -0.2218
-4.7737 CALGARY -0.2218
-4.7737 CALIBRATION -0.2218
-4.7737 CALIFORNIA -0.2218
-4.7737 CALL -0.2218
-4.7737 CALLED -0.2218
-4.7737 CALLING -0.2218
-4.7737 CALLS -0.2218
-4.7737 CALM -0.2218
-4.7737 CALVIN -0.2218
-4.7737 CAM -0.2218
-4.7737 CAMBODIA -0.2218
-4.7737 CAMBRIDGE -0.2218
-4.7737 CAMCORDER -0.2218
-4.7737 CAMCORDERS -0.2218
-4.7737 CAME -0.2218
-4.7737 CAMEL -0.2218
-4.7737 CAMERA -0.2218
-4.7737 CAMERAS -0.2218
-4.7737 CAMERON -0.2218
-4.7737 CAMEROON -0.2218
-4.7737 CAMP -0.2218
-4.7737 CAMPAIGN -0.2218
-4.7737 CAMPAIGNS -0.2218
-4.7737 CAMPBELL -0.2218
-4.7737 CAMPING -0.2218
-4.7737 CAMPS -0.2218
-4.7737 CAMPUS -0.2218
-4.7737 CAMS -0.2218
-4.7737 CAN -0.2218
-4.7737 CANADA -0.2218
-4.7737 CANADIAN -0.2218
-4.7737 CANAL -0.2218
-4.7737 CANBERRA -0.2218
-4.7737 CANCEL -0.2218
-4.7737 CANCELLATION -0.2218
-4.7737 CANCELLED -0.2218
-4.7737 CANCER -0.2218
-4.7737 CANDIDATE -0.2218
-4.7737 CANDIDATES -0.2218
-4.7737 CANDLE -0.2218
-4.7737 CANDLES -0.2218
-4.7737 CANDY -0.2218
-4.7737 CANNON -0.2218
-4.7737 CANON -0.2218
-4.7737 CANT -0.2218
-4.7737 CANVAS -0.2218
-4.7737 CANYON -0.2218
-4.7737 CAP -0.2218
-4.7737 CAPABILITIES -0.2218
-4.7737 CAPABILITY -0.2218
-4.7737 CAPABLE -0.2218
-4.7737 CAPACITY -0.2218
-4.7737 CAPE -0.2218
-4.7737 CAPITAL -0.2218
-4.7737 CAPITOL -0.2218
-4.7737 CAPS -0.2218
-4.7737 CAPTAIN -0.2218
-4.7737 CAPTURE -0.2218
-4.7737 CAPTURED -0.2218
-4.7737 CAR -0.2218
-4.7737 CARB -0.2218
-4.7737 CARBON -0.2218
-4.7737 CARD -0.2218
-4.7737 CARDIAC -0.2218
-4.7737 CARDIFF -0.2218
-4.7737 CARDIOVASCULAR -0.2218
-4.7737 CARDS -0.2218
-4.7737 CARE -0.2218
-4.7737 CAREER -0.2218
-4.7737 CAREERS -0.2218
-4.7737 CAREFUL -0.2218
-4.7737 CAREFULLY -0.2218
-4.7737 CAREY -0.2218
-4.7737 CARGO -0.2218
-4.7737 CARIBBEAN -0.2218
-4.7737 CARING -0.2218
-4.7737 CARL -0.2218
-4.7737 CARLO -0.2218
-4.7737 CARLOS -0.2218
-4.7737 CARMEN -0.2218
-4.7737 CARNIVAL -0.2218
-4.7737 CAROL -0.2218
-4.7737 CAROLINA -0.2218
-4.7737 CAROLINE -0.2218
-4.7737 CARPET -0.2218
-4.7737 CARRIED -0.2218
-4.7737 CARRIER -0.2218
-4.7737 CARRIERS -0.2218
-4.7737 CARRIES -0.2218
-4.7737 CARROLL -0.2218
-4.7737 CARRY -0.2218
-4.7737 CARRYING -0.2218
-4.7737 CARS -0.2218
-4.7737 CART -0.2218
-4.7737 CARTER -0.2218
-4.7737 CARTOON -0.2218
-4.7737 CARTOONS -0.2218
-4.7737 CARTRIDGE -0.2218
-4.7737 CARTRIDGES -0.2218
-4.7737 CAS -0.2218
-4.7737 CASA -0.2218
-4.7737 CASE -0.2218
-4.7737 CASES -0.2218
-4.7737 CASEY -0.2218
-4.7737 CASH -0.2218
-4.7737 CASHIERS -0.2218
-4.7737 CASINO -0.2218
-4.7737 CASINOS -0.2218
-4.7737 CASIO -0.2218
-4.7737 CASSETTE -0.2218
-4.7737 CAST -0.2218
-4.7737 CASTING -0.2218
-4.7737 CASTLE -0.2218
-4.7737 CASUAL -0.2218
-4.7737 CAT -0.2218
-4.7737 CATALOG -0.2218
-4.7737 CATALOGS -0.2218
-4.7737 CATALOGUE -0.2218
-4.7737 CATALYST -0.2218
-4.7737 CATCH -0.2218
-4.7737 CATEGORIES -0.2218
-4.7737 CATEGORY -0.2218
-4.7737 CATERING -0.2218
-4.7737 CATHEDRAL -0.2218
-4.7737 CATHERINE -0.2218
-4.7737 CATHOLIC -0.2218
-4.7737 CATS -0.2218
-4.7737 CATTLE -0.2218
-4.7737 CAUGHT -0.2218
-4.7737 CAUSE -0.2218
-4.7737 CAUSED -0.2218
-4.7737 CAUSES -0.2218
-4.7737 CAUSING -0.2218
-4.7737 CAUTION -0.2218
-4.7737 CAVE -0.2218
-4.7737 CAYMAN -0.2218
-4.7737 CB -0.2218
-4.7737 CBS -0.2218
-4.7737 CC -0.2218
-4.7737 CCD -0.2218
-4.7737 CD -0.2218
-4.7737 CDNA -0.2218
-4.7737 CDS -0.2218
-4.7737 CDT -0.2218
-4.7737 CE -0.2218
-4.7737 CEDAR -0.2218
-4.7737 CEILING -0.2218
-4.7737 CELEBRATE -0.2218
-4.7737 CELEBRATION -0.2218
-4.7737 CELEBRITIES -0.2218
-4.7737 CELEBRITY -0.2218
-4.7737 CELEBS -0.2218
-4.7737 CELL -0.2218
-4.7737 CELLS -0.2218
-4.7737 CELLULAR -0.2218
-4.7737 CELTIC -0.2218
-4.7737 CEMENT -0.2218
-4.7737 CEMETERY -0.2218
-4.7737 CENSUS -0.2218
-4.7737 CENT -0.2218
-4.7737 CENTER -0.2218
-4.7737 CENTERED -0.2218
-4.7737 CENTERS -0.2218
-4.7737 CENTRAL -0.2218
-4.7737 CENTRE -0.2218
-4.7737 CENTRES -0.2218
-4.7737 CENTS -0.2218
-4.7737 CENTURIES -0.2218
-4.7737 CENTURY -0.2218
-4.7737 CEO -0.2218
-4.7737 CERAMIC -0.2218
-4.7737 CEREMONY -0.2218
-4.7737 CERTAIN -0.2218
-4.7737 CERTAINLY -0.2218
-4.7737 CERTIFICATE -0.2218
-4.7737 CERTIFICATES -0.2218
-4.7737 CERTIFICATION -0.2218
-4.7737 CERTIFIED -0.2218
-4.7737 CET -0.2218
-4.7737 CF -0.2218
-4.7737 CFR -0.2218
-4.7737 CG -0.2218
-4.7737 CGI -0.2218
-4.7737 CH -0.2218
-4.7737 CHAD -0.2218
-4.7737 CHAIN -0.2218
-4.7737 CHAINS -0.2218
-4.7737 CHAIR -0.2218
-4.7737 CHAIRMAN -0.2218
-4.7737 CHAIRS -0.2218
-4.7737 CHALLENGE -0.2218
-4.7737 CHALLENGED -0.2218
-4.7737 CHALLENGES -0.2218
-4.7737 CHALLENGING -0.2218
-4.7737 CHAMBER -0.2218
-4.7737 CHAMBERS -0.2218
-4.7737 CHAMPAGNE -0.2218
-4.7737 CHAMPION -0.2218
-4.7737 CHAMPIONS -0.2218
-4.7737 CHAMPIONSHIP -0.2218
-4.7737 CHAMPIONSHIPS -0.2218
-4.7737 CHAN -0.2218
-4.7737 CHANCE -0.2218
-4.7737 CHANCELLOR -0.2218
-4.7737 CHANCES -0.2218
-4.7737 CHANGE -0.2218
-4.7737 CHANGED -0.2218
-4.7737 CHANGELOG -0.2218
-4.7737 CHANGES -0.2218
-4.7737 CHANGING -0.2218
-4.7737 CHANNEL -0.2218
-4.7737 CHANNELS -0.2218
-4.7737 CHAOS -0.2218
-4.7737 CHAPEL -0.2218
-4.7737 CHAPTER -0.2218
-4.7737 CHAPTERS -0.2218
-4.7737 CHAR -0.2218
-4.7737 CHARACTER -0.2218
-4.7737 CHARACTERISTIC -0.2218
-4.7737 CHARACTERISTICS -0.2218
-4.7737 CHARACTERIZATION -0.2218
-4.7737 CHARACTERIZED -0.2218
-4.7737 CHARACTERS -0.2218
-4.7737 CHARGE -0.2218
-4.7737 CHARGED -0.2218
-4.7737 CHARGER -0.2218
-4.7737 CHARGERS -0.2218
-4.7737 CHARGES -0.2218
-4.7737 CHARGING -0.2218
-4.7737 CHARITABLE -0.2218
-4.7737 CHARITY -0.2218
-4.7737 CHARLES -0.2218
-4.7737 CHARLESTON -0.2218
-4.7737 CHARLIE -0.2218
-4.7737 CHARLOTTE -0.2218
-4.7737 CHARM -0.2218
-4.7737 CHARMING -0.2218
-4.7737 CHARMS -0.2218
-4.7737 CHART -0.2218
-4.7737 CHARTER -0.2218
-4.7737 CHARTS -0.2218
-4.7737 CHASE -0.2218
-4.7737 CHASSIS -0.2218
-4.7737 CHAT -0.2218
-4.7737 CHEAP -0.2218
-4.7737 CHEAPER -0.2218
-4.7737 CHEAPEST -0.2218
-4.7737 CHEAT -0.2218
-4.7737 CHEATS -0.2218
-4.7737 CHECK -0.2218
-4.7737 CHECKED -0.2218
-4.7737 CHECKING -0.2218
-4.7737 CHECKLIST -0.2218
-4.7737 CHECKOUT -0.2218
-4.7737 CHECKS -0.2218
-4.7737 CHEERS -0.2218
-4.7737 CHEESE -0.2218
-4.7737 CHEF -0.2218
-4.7737 CHELSEA -0.2218
-4.7737 CHEM -0.2218
-4.7737 CHEMICAL -0.2218
-4.7737 CHEMICALS -0.2218
-4.7737 CHEMISTRY -0.2218
-4.7737 CHEN -0.2218
-4.7737 CHEQUE -0.2218
-4.7737 CHERRY -0.2218
-4.7737 CHESS -0.2218
-4.7737 CHEST -0.2218
-4.7737 CHESTER -0.2218
-4.7737 CHEVROLET -0.2218
-4.7737 CHEVY -0.2218
-4.7737 CHI -0.2218
-4.7737 CHICAGO -0.2218
-4.7737 CHICK -0.2218
-4.7737 CHICKEN -0.2218
-4.7737 CHICKS -0.2218
-4.7737 CHIEF -0.2218
-4.7737 CHILD -0.2218
-4.7737 CHILDHOOD -0.2218
-4.7737 CHILDREN -0.2218
-4.7737 CHILDRENS -0.2218
-4.7737 CHILE -0.2218
-4.7737 CHINA -0.2218
-4.7737 CHINESE -0.2218
-4.7737 CHIP -0.2218
-4.7737 CHIPS -0.2218
-4.7737 CHO -0.2218
-4.7737 CHOCOLATE -0.2218
-4.7737 CHOICE -0.2218
-4.7737 CHOICES -0.2218
-4.7737 CHOIR -0.2218
-4.7737 CHOLESTEROL -0.2218
-4.7737 CHOOSE -0.2218
-4.7737 CHOOSING -0.2218
-4.7737 CHORUS -0.2218
-4.7737 CHOSE -0.2218
-4.7737 CHOSEN -0.2218
-4.7737 CHRIS -0.2218
-4.7737 CHRIST -0.2218
-4.7737 CHRISTIAN -0.2218
-4.7737 CHRISTIANITY -0.2218
-4.7737 CHRISTIANS -0.2218
-4.7737 CHRISTINA -0.2218
-4.7737 CHRISTINE -0.2218
-4.7737 CHRISTMAS -0.2218
-4.7737 CHRISTOPHER -0.2218
-4.7737 CHROME -0.2218
-4.7737 CHRONIC -0.2218
-4.7737 CHRONICLE -0.2218
-4.7737 CHRONICLES -0.2218
-4.7737 CHRYSLER -0.2218
-4.7737 CHUBBY -0.2218
-4.7737 CHUCK -0.2218
-4.7737 CHURCH -0.2218
-4.7737 CHURCHES -0.2218
-4.7737 CI -0.2218
-4.7737 CIA -0.2218
-4.7737 CIALIS -0.2218
-4.7737 CIAO -0.2218
-4.7737 CIGARETTE -0.2218
-4.7737 CIGARETTES -0.2218
-4.7737 CINCINNATI -0.2218
-4.7737 CINDY -0.2218
-4.7737 CINEMA -0.2218
-4.7737 CINGULAR -0.2218
-4.7737 CIO -0.2218
-4.7737 CIR -0.2218
-4.7737 CIRCLE -0.2218
-4.7737 CIRCLES -0.2218
-4.7737 CIRCUIT -0.2218
-4.7737 CIRCUITS -0.2218
-4.7737 CIRCULAR -0.2218
-4.7737 CIRCULATION -0.2218
-4.7737 CIRCUMSTANCES -0.2218
-4.7737 CIRCUS -0.2218
-4.7737 CISCO -0.2218
-4.7737 CITATION -0.2218
-4.7737 CITATIONS -0.2218
-4.7737 CITE -0.2218
-4.7737 CITED -0.2218
-4.7737 CITIES -0.2218
-4.7737 CITIZEN -0.2218
-4.7737 CITIZENS -0.2218
-4.7737 CITIZENSHIP -0.2218
-4.7737 CITY -0.2218
-4.7737 CITYSEARCH -0.2218
-4.7737 CIVIC -0.2218
-4.7737 CIVIL -0.2218
-4.7737 CIVILIAN -0.2218
-4.7737 CIVILIZATION -0.2218
-4.7737 CJ -0.2218
-4.7737 CL -0.2218
-4.7737 CLAIM -0.2218
-4.7737 CLAIMED -0.2218
-4.7737 CLAIMS -0.2218
-4.7737 CLAIRE -0.2218
-4.7737 CLAN -0.2218
-4.7737 CLARA -0.2218
-4.7737 CLARITY -0.2218
-4.7737 CLARK -0.2218
-4.7737 CLARKE -0.2218
-4.7737 CLASS -0.2218
-4.7737 CLASSES -0.2218
-4.7737 CLASSIC -0.2218
-4.7737 CLASSICAL -0.2218
-4.7737 CLASSICS -0.2218
-4.7737 CLASSIFICATION -0.2218
-4.7737 CLASSIFIED -0.2218
-4.7737 CLASSIFIEDS -0.2218
-4.7737 CLASSROOM -0.2218
-4.7737 CLAUSE -0.2218
-4.7737 CLAY -0.2218
-4.7737 CLEAN -0.2218
-4.7737 CLEANER -0.2218
-4.7737 CLEANERS -0.2218
-4.7737 CLEANING -0.2218
-4.7737 CLEANUP -0.2218
-4.7737 CLEAR -0.2218
-4.7737 CLEARANCE -0.2218
-4.7737 CLEARED -0.2218
-4.7737 CLEARING -0.2218
-4.7737 CLEARLY -0.2218
-4.7737 CLERK -0.2218
-4.7737 CLEVELAND -0.2218
-4.7737 CLICK -0.2218
-4.7737 CLICKING -0.2218
-4.7737 CLICKS -0.2218
-4.7737 CLIENT -0.2218
-4.7737 CLIENTS -0.2218
-4.7737 CLIFF -0.2218
-4.7737 CLIMATE -0.2218
-4.7737 CLIMB -0.2218
-4.7737 CLIMBING -0.2218
-4.7737 CLINIC -0.2218
-4.7737 CLINICAL -0.2218
-4.7737 CLINICS -0.2218
-4.7737 CLINTON -0.2218
-4.7737 CLIP -0.2218
-4.7737 CLIPS -0.2218
-4.7737 CLOCK -0.2218
-4.7737 CLOCKS -0.2218
-4.7737 CLONE -0.2218
-4.7737 CLOSE -0.2218
-4.7737 CLOSED -0.2218
-4.7737 CLOSELY -0.2218
-4.7737 CLOSER -0.2218
-4.7737 CLOSES -0.2218
-4.7737 CLOSEST -0.2218
-4.7737 CLOSING -0.2218
-4.7737 CLOSURE -0.2218
-4.7737 CLOTH -0.2218
-4.7737 CLOTHES -0.2218
-4.7737 CLOTHING -0.2218
-4.7737 CLOUD -0.2218
-4.7737 CLOUDS -0.2218
-4.7737 CLOUDY -0.2218
-4.7737 CLUB -0.2218
-4.7737 CLUBS -0.2218
-4.7737 CLUSTER -0.2218
-4.7737 CLUSTERS -0.2218
-4.7737 CM -0.2218
-4.7737 CMS -0.2218
-4.7737 CN -0.2218
-4.7737 CNET -0.2218
-4.7737 CNN -0.2218
-4.7737 CO -0.2218
-4.7737 COACH -0.2218
-4.7737 COACHES -0.2218
-4.7737 COACHING -0.2218
-4.7737 COAL -0.2218
-4.7737 COALITION -0.2218
-4.7737 COAST -0.2218
-4.7737 COASTAL -0.2218
-4.7737 COAT -0.2218
-4.7737 COATED -0.2218
-4.7737 COATING -0.2218
-4.7737 COCKTAIL -0.2218
-4.7737 COD -0.2218
-4.7737 CODE -0.2218
-4.7737 CODES -0.2218
-4.7737 CODING -0.2218
-4.7737 COFFEE -0.2218
-4.7737 COGNITIVE -0.2218
-4.7737 COHEN -0.2218
-4.7737 COIN -0.2218
-4.7737 COINS -0.2218
-4.7737 COL -0.2218
-4.7737 COLD -0.2218
-4.7737 COLE -0.2218
-4.7737 COLEMAN -0.2218
-4.7737 COLIN -0.2218
-4.7737 COLLABORATION -0.2218
-4.7737 COLLABORATIVE -0.2218
-4.7737 COLLAPSE -0.2218
-4.7737 COLLAR -0.2218
-4.7737 COLLEAGUE -0.2218
-4.7737 COLLEAGUES -0.2218
-4.7737 COLLECT -0.2218
-4.7737 COLLECTABLES -0.2218
-4.7737 COLLECTED -0.2218
-4.7737 COLLECTIBLE -0.2218
-4.7737 COLLECTIBLES -0.2218
-4.7737 COLLECTING -0.2218
-4.7737 COLLECTION -0.2218
-4.7737 COLLECTIONS -0.2218
-4.7737 COLLECTIVE -0.2218
-4.7737 COLLECTOR -0.2218
-4.7737 COLLECTORS -0.2218
-4.7737 COLLEGE -0.2218
-4.7737 COLLEGES -0.2218
-4.7737 COLLINS -0.2218
-4.7737 COLOGNE -0.2218
-4.7737 COLOMBIA -0.2218
-4.7737 COLON -0.2218
-4.7737 COLONIAL -0.2218
-4.7737 COLONY -0.2218
-4.7737 COLOR -0.2218
-4.7737 COLORADO -0.2218
-4.7737 COLORED -0.2218
-4.7737 COLORS -0.2218
-4.7737 COLOUR -0.2218
-4.7737 COLOURS -0.2218
-4.7737 COLUMBIA -0.2218
-4.7737 COLUMBUS -0.2218
-4.7737 COLUMN -0.2218
-4.7737 COLUMNISTS -0.2218
-4.7737 COLUMNS -0.2218
-4.7737 COM -0.2218
-4.7737 COMBAT -0.2218
-4.7737 COMBINATION -0.2218
-4.7737 COMBINATIONS -0.2218
-4.7737 COMBINE -0.2218
-4.7737 COMBINED -0.2218
-4.7737 COMBINES -0.2218
-4.7737 COMBINING -0.2218
-4.7737 COMBO -0.2218
-4.7737 COME -0.2218
-4.7737 COMEDY -0.2218
-4.7737 COMES -0.2218
-4.7737 COMFORT -0.2218
-4.7737 COMFORTABLE -0.2218
-4.7737 COMIC -0.2218
-4.7737 COMICS -0.2218
-4.7737 COMING -0.2218
-4.7737 COMM -0.2218
-4.7737 COMMAND -0.2218
-4.7737 COMMANDER -0.2218
-4.7737 COMMANDS -0.2218
-4.7737 COMMENT -0.2218
-4.7737 COMMENTARY -0.2218
-4.7737 COMMENTED -0.2218
-4.7737 COMMENTS -0.2218
-4.7737 COMMERCE -0.2218
-4.7737 COMMERCIAL -0.2218
-4.7737 COMMISSION -0.2218
-4.7737 COMMISSIONER -0.2218
-4.7737 COMMISSIONERS -0.2218
-4.7737 COMMISSIONS -0.2218
-4.7737 COMMIT -0.2218
-4.7737 COMMITMENT -0.2218
-4.7737 COMMITMENTS -0.2218
-4.7737 COMMITTED -0.2218
-4.7737 COMMITTEE -0.2218
-4.7737 COMMITTEES -0.2218
-4.7737 COMMODITIES -0.2218
-4.7737 COMMODITY -0.2218
-4.7737 COMMON -0.2218
-4.7737 COMMONLY -0.2218
-4.7737 COMMONS -0.2218
-4.7737 COMMONWEALTH -0.2218
-4.7737 COMMUNICATE -0.2218
-4.7737 COMMUNICATION -0.2218
-4.7737 COMMUNICATIONS -0.2218
-4.7737 COMMUNIST -0.2218
-4.7737 COMMUNITIES -0.2218
-4.7737 COMMUNITY -0.2218
-4.7737 COMP -0.2218
-4.7737 COMPACT -0.2218
-4.7737 COMPANIES -0.2218
-4.7737 COMPANION -0.2218
-4.7737 COMPANY -0.2218
-4.7737 COMPAQ -0.2218
-4.7737 COMPARABLE -0.2218
-4.7737 COMPARATIVE -0.2218
-4.7737 COMPARE -0.2218
-4.7737 COMPARED -0.2218
-4.7737 COMPARING -0.2218
-4.7737 COMPARISON -0.2218
-4.7737 COMPARISONS -0.2218
-4.7737 COMPATIBILITY -0.2218
-4.7737 COMPATIBLE -0.2218
-4.7737 COMPENSATION -0.2218
-4.7737 COMPETE -0.2218
-4.7737 COMPETENT -0.2218
-4.7737 COMPETING -0.2218
-4.7737 COMPETITION -0.2218
-4.7737 COMPETITIONS -0.2218
-4.7737 COMPETITIVE -0.2218
-4.7737 COMPETITORS -0.2218
-4.7737 COMPILATION -0.2218
-4.7737 COMPILE -0.2218
-4.7737 COMPILED -0.2218
-4.7737 COMPILER -0.2218
-4.7737 COMPLAINT -0.2218
-4.7737 COMPLAINTS -0.2218
-4.7737 COMPLEMENT -0.2218
-4.7737 COMPLETE -0.2218
-4.7737 COMPLETED -0.2218
-4.7737 COMPLETELY -0.2218
-4.7737 COMPLETING -0.2218
-4.7737 COMPLETION -0.2218
-4.7737 COMPLEX -0.2218
-4.7737 COMPLEXITY -0.2218
-4.7737 COMPLIANCE -0.2218
-4.7737 COMPLIANT -0.2218
-4.7737 COMPLICATED -0.2218
-4.7737 COMPLICATIONS -0.2218
-4.7737 COMPLIMENTARY -0.2218
-4.7737 COMPLY -0.2218
-4.7737 COMPONENT -0.2218
-4.7737 COMPONENTS -0.2218
-4.7737 COMPOSED -0.2218
-4.7737 COMPOSER -0.2218
-4.7737 COMPOSITE -0.2218
-4.7737 COMPOSITION -0.2218
-4.7737 COMPOUND -0.2218
-4.7737 COMPOUNDS -0.2218
-4.7737 COMPREHENSIVE -0.2218
-4.7737 COMPRESSED -0.2218
-4.7737 COMPRESSION -0.2218
-4.7737 COMPROMISE -0.2218
-4.7737 COMPUTATION -0.2218
-4.7737 COMPUTATIONAL -0.2218
-4.7737 COMPUTE -0.2218
-4.7737 COMPUTED -0.2218
-4.7737 COMPUTER -0.2218
-4.7737 COMPUTERS -0.2218
-4.7737 COMPUTING -0.2218
-4.7737 CON -0.2218
-4.7737 CONCENTRATE -0.2218
-4.7737 CONCENTRATION -0.2218
-4.7737 CONCENTRATIONS -0.2218
-4.7737 CONCEPT -0.2218
-4.7737 CONCEPTS -0.2218
-4.7737 CONCEPTUAL -0.2218
-4.7737 CONCERN -0.2218
-4.7737 CONCERNED -0.2218
-4.7737 CONCERNING -0.2218
-4.7737 CONCERNS -0.2218
-4.7737 CONCERT -0.2218
-4.7737 CONCERTS -0.2218
-4.7737 CONCLUDE -0.2218
-4.7737 CONCLUDED -0.2218
-4.7737 CONCLUSION -0.2218
-4.7737 CONCLUSIONS -0.2218
-4.7737 CONCORD -0.2218
-4.7737 CONCRETE -0.2218
-4.7737 CONDITION -0.2218
-4.7737 CONDITIONAL -0.2218
-4.7737 CONDITIONING -0.2218
-4.7737 CONDITIONS -0.2218
-4.7737 CONDO -0.2218
-4.7737 CONDOS -0.2218
-4.7737 CONDUCT -0.2218
-4.7737 CONDUCTED -0.2218
-4.7737 CONDUCTING -0.2218
-4.7737 CONF -0.2218
-4.7737 CONFERENCE -0.2218
-4.7737 CONFERENCES -0.2218
-4.7737 CONFERENCING -0.2218
-4.7737 CONFIDENCE -0.2218
-4.7737 CONFIDENT -0.2218
-4.7737 CONFIDENTIAL -0.2218
-4.7737 CONFIDENTIALITY -0.2218
-4.7737 CONFIG -0.2218
-4.7737 CONFIGURATION -0.2218
-4.7737 CONFIGURATIONS -0.2218
-4.7737 CONFIGURE -0.2218
-4.7737 CONFIGURED -0.2218
-4.7737 CONFIGURING -0.2218
-4.7737 CONFIRM -0.2218
-4.7737 CONFIRMATION -0.2218
-4.7737 CONFIRMED -0.2218
-4.7737 CONFLICT -0.2218
-4.7737 CONFLICTS -0.2218
-4.7737 CONFUSED -0.2218
-4.7737 CONFUSION -0.2218
-4.7737 CONGO -0.2218
-4.7737 CONGRATULATIONS -0.2218
-4.7737 CONGRESS -0.2218
-4.7737 CONGRESSIONAL -0.2218
-4.7737 CONJUNCTION -0.2218
-4.7737 CONNECT -0.2218
-4.7737 CONNECTED -0.2218
-4.7737 CONNECTICUT -0.2218
-4.7737 CONNECTING -0.2218
-4.7737 CONNECTION -0.2218
-4.7737 CONNECTIONS -0.2218
-4.7737 CONNECTIVITY -0.2218
-4.7737 CONNECTOR -0.2218
-4.7737 CONNECTORS -0.2218
-4.7737 CONS -0.2218
-4.7737 CONSCIOUS -0.2218
-4.7737 CONSCIOUSNESS -0.2218
-4.7737 CONSECUTIVE -0.2218
-4.7737 CONSENSUS -0.2218
-4.7737 CONSENT -0.2218
-4.7737 CONSEQUENCE -0.2218
-4.7737 CONSEQUENCES -0.2218
-4.7737 CONSEQUENTLY -0.2218
-4.7737 CONSERVATION -0.2218
-4.7737 CONSERVATIVE -0.2218
-4.7737 CONSIDER -0.2218
-4.7737 CONSIDERABLE -0.2218
-4.7737 CONSIDERATION -0.2218
-4.7737 CONSIDERATIONS -0.2218
-4.7737 CONSIDERED -0.2218
-4.7737 CONSIDERING -0.2218
-4.7737 CONSIDERS -0.2218
-4.7737 CONSIST -0.2218
-4.7737 CONSISTENCY -0.2218
-4.7737 CONSISTENT -0.2218
-4.7737 CONSISTENTLY -0.2218
-4.7737 CONSISTING -0.2218
-4.7737 CONSISTS -0.2218
-4.7737 CONSOLE -0.2218
-4.7737 CONSOLES -0.2218
-4.7737 CONSOLIDATED -0.2218
-4.7737 CONSOLIDATION -0.2218
-4.7737 CONSORTIUM -0.2218
-4.7737 CONSPIRACY -0.2218
-4.7737 CONST -0.2218
-4.7737 CONSTANT -0.2218
-4.7737 CONSTANTLY -0.2218
-4.7737 CONSTITUTE -0.2218
-4.7737 CONSTITUTES -0.2218
-4.7737 CONSTITUTION -0.2218
-4.7737 CONSTITUTIONAL -0.2218
-4.7737 CONSTRAINT -0.2218
-4.7737 CONSTRAINTS -0.2218
-4.7737 CONSTRUCT -0.2218
-4.7737 CONSTRUCTED -0.2218
-4.7737 CONSTRUCTION -0.2218
-4.7737 CONSULT -0.2218
-4.7737 CONSULTANCY -0.2218
-4.7737 CONSULTANT -0.2218
-4.7737 CONSULTANTS -0.2218
-4.7737 CONSULTATION -0.2218
-4.7737 CONSULTING -0.2218
-4.7737 CONSUMER -0.2218
-4.7737 CONSUMERS -0.2218
-4.7737 CONSUMPTION -0.2218
-4.7737 CONTACT -0.2218
-4.7737 CONTACTED -0.2218
-4.7737 CONTACTING -0.2218
-4.7737 CONTACTS -0.2218
-4.7737 CONTAIN -0.2218
-4.7737 CONTAINED -0.2218
-4.7737 CONTAINER -0.2218
-4.7737 CONTAINERS -0.2218
-4.7737 CONTAINING -0.2218
-4.7737 CONTAINS -0.2218
-4.7737 CONTAMINATION -0.2218
-4.7737 CONTEMPORARY -0.2218
-4.7737 CONTENT -0.2218
-4.7737 CONTENTS -0.2218
-4.7737 CONTEST -0.2218
-4.7737 CONTESTS -0.2218
-4.7737 CONTEXT -0.2218
-4.7737 CONTINENT -0.2218
-4.7737 CONTINENTAL -0.2218
-4.7737 CONTINUALLY -0.2218
-4.7737 CONTINUE -0.2218
-4.7737 CONTINUED -0.2218
-4.7737 CONTINUES -0.2218
-4.7737 CONTINUING -0.2218
-4.7737 CONTINUITY -0.2218
-4.7737 CONTINUOUS -0.2218
-4.7737 CONTINUOUSLY -0.2218
-4.7737 CONTRACT -0.2218
-4.7737 CONTRACTING -0.2218
-4.7737 CONTRACTOR -0.2218
-4.7737 CONTRACTORS -0.2218
-4.7737 CONTRACTS -0.2218
-4.7737 CONTRARY -0.2218
-4.7737 CONTRAST -0.2218
-4.7737 CONTRIBUTE -0.2218
-4.7737 CONTRIBUTED -0.2218
-4.7737 CONTRIBUTING -0.2218
-4.7737 CONTRIBUTION -0.2218
-4.7737 CONTRIBUTIONS -0.2218
-4.7737 CONTRIBUTOR -0.2218
-4.7737 CONTRIBUTORS -0.2218
-4.7737 CONTROL -0.2218
-4.7737 CONTROLLED -0.2218
-4.7737 CONTROLLER -0.2218
-4.7737 CONTROLLERS -0.2218
-4.7737 CONTROLLING -0.2218
-4.7737 CONTROLS -0.2218
-4.7737 CONTROVERSIAL -0.2218
-4.7737 CONTROVERSY -0.2218
-4.7737 CONVENIENCE -0.2218
-4.7737 CONVENIENT -0.2218
-4.7737 CONVENTION -0.2218
-4.7737 CONVENTIONAL -0.2218
-4.7737 CONVENTIONS -0.2218
-4.7737 CONVERGENCE -0.2218
-4.7737 CONVERSATION -0.2218
-4.7737 CONVERSATIONS -0.2218
-4.7737 CONVERSION -0.2218
-4.7737 CONVERT -0.2218
-4.7737 CONVERTED -0.2218
-4.7737 CONVERTER -0.2218
-4.7737 CONVERTIBLE -0.2218
-4.7737 CONVICTED -0.2218
-4.7737 CONVICTION -0.2218
-4.7737 CONVINCED -0.2218
-4.7737 COOK -0.2218
-4.7737 COOKBOOK -0.2218
-4.7737 COOKED -0.2218
-4.7737 COOKIE -0.2218
-4.7737 COOKIES -0.2218
-4.7737 COOKING -0.2218
-4.7737 COOL -0.2218
-4.7737 COOLER -0.2218
-4.7737 COOLING -0.2218
-4.7737 COOPER -0.2218
-4.7737 COOPERATION -0.2218
-4.7737 COOPERATIVE -0.2218
-4.7737 COORDINATE -0.2218
-4.7737 COORDINATED -0.2218
-4.7737 COORDINATES -0.2218
-4.7737 COORDINATION -0.2218
-4.7737 COORDINATOR -0.2218
-4.7737 COP -0.2218
-4.7737 COPE -0.2218
-4.7737 COPIED -0.2218
-4.7737 COPIES -0.2218
-4.7737 COPPER -0.2218
-4.7737 COPY -0.2218
-4.7737 COPYING -0.2218
-4.7737 COPYRIGHT -0.2218
-4.7737 COPYRIGHTED -0.2218
-4.7737 COPYRIGHTS -0.2218
-4.7737 CORAL -0.2218
-4.7737 CORD -0.2218
-4.7737 CORDLESS -0.2218
-4.7737 CORE -0.2218
-4.7737 CORK -0.2218
-4.7737 CORN -0.2218
-4.7737 CORNELL -0.2218
-4.7737 CORNER -0.2218
-4.7737 CORNERS -0.2218
-4.7737 CORNWALL -0.2218
-4.7737 CORP -0.2218
-4.7737 CORPORATE -0.2218
-4.7737 CORPORATION -0.2218
-4.7737 CORPORATIONS -0.2218
-4.7737 CORPS -0.2218
-4.7737 CORPUS -0.2218
-4.7737 CORRECT -0.2218
-4.7737 CORRECTED -0.2218
-4.7737 CORRECTION -0.2218
-4.7737 CORRECTIONS -0.2218
-4.7737 CORRECTLY -0.2218
-4.7737 CORRELATION -0.2218
-4.7737 CORRESPONDENCE -0.2218
-4.7737 CORRESPONDING -0.2218
-4.7737 CORRUPTION -0.2218
-4.7737 COS -0.2218
-4.7737 COSMETIC -0.2218
-4.7737 COSMETICS -0.2218
-4.7737 COST -0.2218
-4.7737 COSTA -0.2218
-4.7737 COSTS -0.2218
-4.7737 COSTUME -0.2218
-4.7737 COSTUMES -0.2218
-4.7737 COTTAGE -0.2218
-4.7737 COTTAGES -0.2218
-4.7737 COTTON -0.2218
-4.7737 COULD -0.2218
-4.7737 COUNCIL -0.2218
-4.7737 COUNCILS -0.2218
-4.7737 COUNSEL -0.2218
-4.7737 COUNSELING -0.2218
-4.7737 COUNT -0.2218
-4.7737 COUNTED -0.2218
-4.7737 COUNTER -0.2218
-4.7737 COUNTERS -0.2218
-4.7737 COUNTIES -0.2218
-4.7737 COUNTING -0.2218
-4.7737 COUNTRIES -0.2218
-4.7737 COUNTRY -0.2218
-4.7737 COUNTS -0.2218
-4.7737 COUNTY -0.2218
-4.7737 COUPLE -0.2218
-4.7737 COUPLED -0.2218
-4.7737 COUPLES -0.2218
-4.7737 COUPON -0.2218
-4.7737 COUPONS -0.2218
-4.7737 COURAGE -0.2218
-4.7737 COURIER -0.2218
-4.7737 COURSE -0.2218
-4.7737 COURSES -0.2218
-4.7737 COURT -0.2218
-4.7737 COURTESY -0.2218
-4.7737 COURTS -0.2218
-4.7737 COVE -0.2218
-4.7737 COVER -0.2218
-4.7737 COVERAGE -0.2218
-4.7737 COVERED -0.2218
-4.7737 COVERING -0.2218
-4.7737 COVERS -0.2218
-4.7737 COW -0.2218
-4.7737 COWBOY -0.2218
-4.7737 CP -0.2218
-4.7737 CPU -0.2218
-4.7737 CR -0.2218
-4.7737 CRACK -0.2218
-4.7737 CRADLE -0.2218
-4.7737 CRAFT -0.2218
-4.7737 CRAFTS -0.2218
-4.7737 CRAIG -0.2218
-4.7737 CRAPS -0.2218
-4.7737 CRASH -0.2218
-4.7737 CRAWFORD -0.2218
-4.7737 CRAZY -0.2218
-4.7737 CREAM -0.2218
-4.7737 CREATE -0.2218
-4.7737 CREATED -0.2218
-4.7737 CREATES -0.2218
-4.7737 CREATING -0.2218
-4.7737 CREATION -0.2218
-4.7737 CREATIONS -0.2218
-4.7737 CREATIVE -0.2218
-4.7737 CREATIVITY -0.2218
-4.7737 CREATOR -0.2218
-4.7737 CREATURE -0.2218
-4.7737 CREATURES -0.2218
-4.7737 CREDIT -0.2218
-4.7737 CREDITS -0.2218
-4.7737 CREEK -0.2218
-4.7737 CREST -0.2218
-4.7737 CREW -0.2218
-4.7737 CRICKET -0.2218
-4.7737 CRIME -0.2218
-4.7737 CRIMES -0.2218
-4.7737 CRIMINAL -0.2218
-4.7737 CRISIS -0.2218
-4.7737 CRITERIA -0.2218
-4.7737 CRITERION -0.2218
-4.7737 CRITICAL -0.2218
-4.7737 CRITICISM -0.2218
-4.7737 CRITICS -0.2218
-4.7737 CRM -0.2218
-4.7737 CROATIA -0.2218
-4.7737 CROP -0.2218
-4.7737 CROPS -0.2218
-4.7737 CROSS -0.2218
-4.7737 CROSSING -0.2218
-4.7737 CROSSWORD -0.2218
-4.7737 CROWD -0.2218
-4.7737 CROWN -0.2218
-4.7737 CRUCIAL -0.2218
-4.7737 CRUDE -0.2218
-4.7737 CRUISE -0.2218
-4.7737 CRUISES -0.2218
-4.7737 CRUZ -0.2218
-4.7737 CRY -0.2218
-4.7737 CRYSTAL -0.2218
-4.7737 CS -0.2218
-4.7737 CSS -0.2218
-4.7737 CST -0.2218
-4.7737 CT -0.2218
-4.7737 CTRL -0.2218
-4.7737 CU -0.2218
-4.7737 CUBA -0.2218
-4.7737 CUBE -0.2218
-4.7737 CUBIC -0.2218
-4.7737 CUISINE -0.2218
-4.7737 CULT -0.2218
-4.7737 CULTURAL -0.2218
-4.7737 CULTURE -0.2218
-4.7737 CULTURES -0.2218
-4.7737 CUMULATIVE -0.2218
-4.7737 CUP -0.2218
-4.7737 CUPS -0.2218
-4.7737 CURE -0.2218
-4.7737 CURIOUS -0.2218
-4.7737 CURRENCIES -0.2218
-4.7737 CURRENCY -0.2218
-4.7737 CURRENT -0.2218
-4.7737 CURRENTLY -0.2218
-4.7737 CURRICULUM -0.2218
-4.7737 CURSOR -0.2218
-4.7737 CURTIS -0.2218
-4.7737 CURVE -0.2218
-4.7737 CURVES -0.2218
-4.7737 CUSTODY -0.2218
-4.7737 CUSTOM -0.2218
-4.7737 CUSTOMER -0.2218
-4.7737 CUSTOMERS -0.2218
-4.7737 CUSTOMISE -0.2218
-4.7737 CUSTOMIZE -0.2218
-4.7737 CUSTOMIZED -0.2218
-4.7737 CUSTOMS -0.2218
-4.7737 CUT -0.2218
-4.7737 CUTE -0.2218
-4.7737 CUTS -0.2218
-4.7737 CUTTING -0.2218
-4.7737 CV -0.2218
-4.7737 CVS -0.2218
-4.7737 CW -0.2218
-4.7737 CYBER -0.2218
-4.7737 CYCLE -0.2218
-4.7737 CYCLES -0.2218
-4.7737 CYCLING -0.2218
-4.7737 CYLINDER -0.2218
-4.7737 CYPRUS -0.2218
-4.7737 CZ -0.2218
-4.7737 CZECH -0.2218
-4.7737 D -0.2218
-4.7737 DA -0.2218
-4.7737 DAD -0.2218
-4.7737 DADDY -0.2218
-4.7737 DAILY -0.2218
-4.7737 DAIRY -0.2218
-4.7737 DAISY -0.2218
-4.7737 DAKOTA -0.2218
-4.7737 DALE -0.2218
-4.7737 DALLAS -0.2218
-4.7737 DAM -0.2218
-4.7737 DAMAGE -0.2218
-4.7737 DAMAGED -0.2218
-4.7737 DAMAGES -0.2218
-4.7737 DAME -0.2218
-4.7737 DAN -0.2218
-4.7737 DANA -0.2218
-4.7737 DANCE -0.2218
-4.7737 DANCING -0.2218
-4.7737 DANGER -0.2218
-4.7737 DANGEROUS -0.2218
-4.7737 DANIEL -0.2218
-4.7737 DANISH -0.2218
-4.7737 DANNY -0.2218
-4.7737 DANS -0.2218
-4.7737 DARE -0.2218
-4.7737 DARK -0.2218
-4.7737 DARKNESS -0.2218
-4.7737 DARWIN -0.2218
-4.7737 DAS -0.2218
-4.7737 DASH -0.2218
-4.7737 DAT -0.2218
-4.7737 DATA -0.2218
-4.7737 DATABASE -0.2218
-4.7737 DATABASES -0.2218
-4.7737 DATE -0.2218
-4.7737 DATED -0.2218
-4.7737 DATES -0.2218
-4.7737 DATING -0.2218
-4.7737 DAUGHTER -0.2218
-4.7737 DAUGHTERS -0.2218
-4.7737 DAVE -0.2218
-4.7737 DAVID -0.2218
-4.7737 DAVIDSON -0.2218
-4.7737 DAVIS -0.2218
-4.7737 DAWN -0.2218
-4.7737 DAY -0.2218
-4.7737 DAYS -0.2218
-4.7737 DAYTON -0.2218
-4.7737 DB -0.2218
-4.7737 DC -0.2218
-4.7737 DD -0.2218
-4.7737 DDR -0.2218
-4.7737 DE -0.2218
-4.7737 DEAD -0.2218
-4.7737 DEADLINE -0.2218
-4.7737 DEADLY -0.2218
-4.7737 DEAF -0.2218
-4.7737 DEAL -0.2218
-4.7737 DEALER -0.2218
-4.7737 DEALERS -0.2218
-4.7737 DEALING -0.2218
-4.7737 DEALS -0.2218
-4.7737 DEALT -0.2218
-4.7737 DEALTIME -0.2218
-4.7737 DEAN -0.2218
-4.7737 DEAR -0.2218
-4.7737 DEATH -0.2218
-4.7737 DEATHS -0.2218
-4.7737 DEBATE -0.2218
-4.7737 DEBIAN -0.2218
-4.7737 DEBORAH -0.2218
-4.7737 DEBT -0.2218
-4.7737 DEBUG -0.2218
-4.7737 DEBUT -0.2218
-4.7737 DEC -0.2218
-4.7737 DECADE -0.2218
-4.7737 DECADES -0.2218
-4.7737 DECEMBER -0.2218
-4.7737 DECENT -0.2218
-4.7737 DECIDE -0.2218
-4.7737 DECIDED -0.2218
-4.7737 DECIMAL -0.2218
-4.7737 DECISION -0.2218
-4.7737 DECISIONS -0.2218
-4.7737 DECK -0.2218
-4.7737 DECLARATION -0.2218
-4.7737 DECLARE -0.2218
-4.7737 DECLARED -0.2218
-4.7737 DECLINE -0.2218
-4.7737 DECLINED -0.2218
-4.7737 DECOR -0.2218
-4.7737 DECORATING -0.2218
-4.7737 DECORATIVE -0.2218
-4.7737 DECREASE -0.2218
-4.7737 DECREASED -0.2218
-4.7737 DEDICATED -0.2218
-4.7737 DEE -0.2218
-4.7737 DEEMED -0.2218
-4.7737 DEEP -0.2218
-4.7737 DEEPER -0.2218
-4.7737 DEEPLY -0.2218
-4.7737 DEER -0.2218
-4.7737 DEF -0.2218
-4.7737 DEFAULT -0.2218
-4.7737 DEFEAT -0.2218
-4.7737 DEFECTS -0.2218
-4.7737 DEFENCE -0.2218
-4.7737 DEFEND -0.2218
-4.7737 DEFENDANT -0.2218
-4.7737 DEFENSE -0.2218
-4.7737 DEFENSIVE -0.2218
-4.7737 DEFERRED -0.2218
-4.7737 DEFICIT -0.2218
-4.7737 DEFINE -0.2218
-4.7737 DEFINED -0.2218
-4.7737 DEFINES -0.2218
-4.7737 DEFINING -0.2218
-4.7737 DEFINITELY -0.2218
-4.7737 DEFINITION -0.2218
-4.7737 DEFINITIONS -0.2218
-4.7737 DEGREE -0.2218
-4.7737 DEGREES -0.2218
-4.7737 DEL -0.2218
-4.7737 DELAWARE -0.2218
-4.7737 DELAY -0.2218
-4.7737 DELAYED -0.2218
-4.7737 DELAYS -0.2218
-4.7737 DELEGATION -0.2218
-4.7737 DELETE -0.2218
-4.7737 DELETED -0.2218
-4.7737 DELHI -0.2218
-4.7737 DELICIOUS -0.2218
-4.7737 DELIGHT -0.2218
-4.7737 DELIVER -0.2218
-4.7737 DELIVERED -0.2218
-4.7737 DELIVERING -0.2218
-4.7737 DELIVERS -0.2218
-4.7737 DELIVERY -0.2218
-4.7737 DELL -0.2218
-4.7737 DELTA -0.2218
-4.7737 DELUXE -0.2218
-4.7737 DEM -0.2218
-4.7737 DEMAND -0.2218
-4.7737 DEMANDING -0.2218
-4.7737 DEMANDS -0.2218
-4.7737 DEMO -0.2218
-4.7737 DEMOCRACY -0.2218
-4.7737 DEMOCRAT -0.2218
-4.7737 DEMOCRATIC -0.2218
-4.7737 DEMOCRATS -0.2218
-4.7737 DEMOGRAPHIC -0.2218
-4.7737 DEMONSTRATE -0.2218
-4.7737 DEMONSTRATED -0.2218
-4.7737 DEMONSTRATES -0.2218
-4.7737 DEMONSTRATION -0.2218
-4.7737 DEN -0.2218
-4.7737 DENIAL -0.2218
-4.7737 DENIED -0.2218
-4.7737 DENMARK -0.2218
-4.7737 DENNIS -0.2218
-4.7737 DENSE -0.2218
-4.7737 DENSITY -0.2218
-4.7737 DENTAL -0.2218
-4.7737 DENTISTS -0.2218
-4.7737 DENVER -0.2218
-4.7737 DENY -0.2218
-4.7737 DEPARTMENT -0.2218
-4.7737 DEPARTMENTAL -0.2218
-4.7737 DEPARTMENTS -0.2218
-4.7737 DEPARTURE -0.2218
-4.7737 DEPEND -0.2218
-4.7737 DEPENDENCE -0.2218
-4.7737 DEPENDENT -0.2218
-4.7737 DEPENDING -0.2218
-4.7737 DEPENDS -0.2218
-4.7737 DEPLOYMENT -0.2218
-4.7737 DEPOSIT -0.2218
-4.7737 DEPOSITS -0.2218
-4.7737 DEPOT -0.2218
-4.7737 DEPRESSION -0.2218
-4.7737 DEPT -0.2218
-4.7737 DEPTH -0.2218
-4.7737 DEPUTY -0.2218
-4.7737 DER -0.2218
-4.7737 DERBY -0.2218
-4.7737 DEREK -0.2218
-4.7737 DERIVED -0.2218
-4.7737 DES -0.2218
-4.7737 DESCENDING -0.2218
-4.7737 DESCRIBE -0.2218
-4.7737 DESCRIBED -0.2218
-4.7737 DESCRIBES -0.2218
-4.7737 DESCRIBING -0.2218
-4.7737 DESCRIPTION -0.2218
-4.7737 DESCRIPTIONS -0.2218
-4.7737 DESERT -0.2218
-4.7737 DESERVE -0.2218
-4.7737 DESIGN -0.2218
-4.7737 DESIGNATED -0.2218
-4.7737 DESIGNATION -0.2218
-4.7737 DESIGNED -0.2218
-4.7737 DESIGNER -0.2218
-4.7737 DESIGNERS -0.2218
-4.7737 DESIGNING -0.2218
-4.7737 DESIGNS -0.2218
-4.7737 DESIRABLE -0.2218
-4.7737 DESIRE -0.2218
-4.7737 DESIRED -0.2218
-4.7737 DESK -0.2218
-4.7737 DESKTOP -0.2218
-4.7737 DESKTOPS -0.2218
-4.7737 DESPERATE -0.2218
-4.7737 DESPITE -0.2218
-4.7737 DESTINATION -0.2218
-4.7737 DESTINATIONS -0.2218
-4.7737 DESTINY -0.2218
-4.7737 DESTROY -0.2218
-4.7737 DESTROYED -0.2218
-4.7737 DESTRUCTION -0.2218
-4.7737 DETAIL -0.2218
-4.7737 DETAILED -0.2218
-4.7737 DETAILS -0.2218
-4.7737 DETECT -0.2218
-4.7737 DETECTED -0.2218
-4.7737 DETECTION -0.2218
-4.7737 DETECTIVE -0.2218
-4.7737 DETECTOR -0.2218
-4.7737 DETERMINATION -0.2218
-4.7737 DETERMINE -0.2218
-4.7737 DETERMINED -0.2218
-4.7737 DETERMINES -0.2218
-4.7737 DETERMINING -0.2218
-4.7737 DETROIT -0.2218
-4.7737 DEUTSCH -0.2218
-4.7737 DEUTSCHE -0.2218
-4.7737 DEUTSCHLAND -0.2218
-4.7737 DEV -0.2218
-4.7737 DEVEL -0.2218
-4.7737 DEVELOP -0.2218
-4.7737 DEVELOPED -0.2218
-4.7737 DEVELOPER -0.2218
-4.7737 DEVELOPERS -0.2218
-4.7737 DEVELOPING -0.2218
-4.7737 DEVELOPMENT -0.2218
-4.7737 DEVELOPMENTAL -0.2218
-4.7737 DEVELOPMENTS -0.2218
-4.7737 DEVELOPS -0.2218
-4.7737 DEVIANT -0.2218
-4.7737 DEVIATION -0.2218
-4.7737 DEVICE -0.2218
-4.7737 DEVICES -0.2218
-4.7737 DEVIL -0.2218
-4.7737 DEVON -0.2218
-4.7737 DEVOTED -0.2218
-4.7737 DF -0.2218
-4.7737 DG -0.2218
-4.7737 DH -0.2218
-4.7737 DI -0.2218
-4.7737 DIABETES -0.2218
-4.7737 DIAGNOSIS -0.2218
-4.7737 DIAGNOSTIC -0.2218
-4.7737 DIAGRAM -0.2218
-4.7737 DIAL -0.2218
-4.7737 DIALOG -0.2218
-4.7737 DIALOGUE -0.2218
-4.7737 DIAMETER -0.2218
-4.7737 DIAMOND -0.2218
-4.7737 DIAMONDS -0.2218
-4.7737 DIANA -0.2218
-4.7737 DIANE -0.2218
-4.7737 DIARY -0.2218
-4.7737 DICE -0.2218
-4.7737 DICKE -0.2218
-4.7737 DICKS -0.2218
-4.7737 DICTIONARIES -0.2218
-4.7737 DICTIONARY -0.2218
-4.7737 DID -0.2218
-4.7737 DIE -0.2218
-4.7737 DIED -0.2218
-4.7737 DIEGO -0.2218
-4.7737 DIES -0.2218
-4.7737 DIESEL -0.2218
-4.7737 DIET -0.2218
-4.7737 DIETARY -0.2218
-4.7737 DIFF -0.2218
-4.7737 DIFFER -0.2218
-4.7737 DIFFERENCE -0.2218
-4.7737 DIFFERENCES -0.2218
-4.7737 DIFFERENT -0.2218
-4.7737 DIFFERENTIAL -0.2218
-4.7737 DIFFERENTLY -0.2218
-4.7737 DIFFICULT -0.2218
-4.7737 DIFFICULTIES -0.2218
-4.7737 DIFFICULTY -0.2218
-4.7737 DIFFS -0.2218
-4.7737 DIG -0.2218
-4.7737 DIGEST -0.2218
-4.7737 DIGIT -0.2218
-4.7737 DIGITAL -0.2218
-4.7737 DIM -0.2218
-4.7737 DIMENSION -0.2218
-4.7737 DIMENSIONAL -0.2218
-4.7737 DIMENSIONS -0.2218
-4.7737 DINING -0.2218
-4.7737 DINNER -0.2218
-4.7737 DIP -0.2218
-4.7737 DIPLOMA -0.2218
-4.7737 DIR -0.2218
-4.7737 DIRECT -0.2218
-4.7737 DIRECTED -0.2218
-4.7737 DIRECTION -0.2218
-4.7737 DIRECTIONS -0.2218
-4.7737 DIRECTIVE -0.2218
-4.7737 DIRECTLY -0.2218
-4.7737 DIRECTOR -0.2218
-4.7737 DIRECTORIES -0.2218
-4.7737 DIRECTORS -0.2218
-4.7737 DIRECTORY -0.2218
-4.7737 DIRT -0.2218
-4.7737 DIRTY -0.2218
-4.7737 DIS -0.2218
-4.7737 DISABILITIES -0.2218
-4.7737 DISABILITY -0.2218
-4.7737 DISABLE -0.2218
-4.7737 DISABLED -0.2218
-4.7737 DISAGREE -0.2218
-4.7737 DISAPPOINTED -0.2218
-4.7737 DISASTER -0.2218
-4.7737 DISC -0.2218
-4.7737 DISCHARGE -0.2218
-4.7737 DISCIPLINARY -0.2218
-4.7737 DISCIPLINE -0.2218
-4.7737 DISCIPLINES -0.2218
-4.7737 DISCLAIMER -0.2218
-4.7737 DISCLAIMERS -0.2218
-4.7737 DISCLOSE -0.2218
-4.7737 DISCLOSURE -0.2218
-4.7737 DISCO -0.2218
-4.7737 DISCOUNT -0.2218
-4.7737 DISCOUNTED -0.2218
-4.7737 DISCOUNTS -0.2218
-4.7737 DISCOVER -0.2218
-4.7737 DISCOVERED -0.2218
-4.7737 DISCOVERY -0.2218
-4.7737 DISCRETE -0.2218
-4.7737 DISCRETION -0.2218
-4.7737 DISCRIMINATION -0.2218
-4.7737 DISCS -0.2218
-4.7737 DISCUSS -0.2218
-4.7737 DISCUSSED -0.2218
-4.7737 DISCUSSES -0.2218
-4.7737 DISCUSSING -0.2218
-4.7737 DISCUSSION -0.2218
-4.7737 DISCUSSIONS -0.2218
-4.7737 DISEASE -0.2218
-4.7737 DISEASES -0.2218
-4.7737 DISH -0.2218
-4.7737 DISHES -0.2218
-4.7737 DISK -0.2218
-4.7737 DISKS -0.2218
-4.7737 DISNEY -0.2218
-4.7737 DISORDER -0.2218
-4.7737 DISORDERS -0.2218
-4.7737 DISPATCH -0.2218
-4.7737 DISPATCHED -0.2218
-4.7737 DISPLAY -0.2218
-4.7737 DISPLAYED -0.2218
-4.7737 DISPLAYING -0.2218
-4.7737 DISPLAYS -0.2218
-4.7737 DISPOSAL -0.2218
-4.7737 DISPOSITION -0.2218
-4.7737 DISPUTE -0.2218
-4.7737 DISPUTES -0.2218
-4.7737 DIST -0.2218
-4.7737 DISTANCE -0.2218
-4.7737 DISTANCES -0.2218
-4.7737 DISTANT -0.2218
-4.7737 DISTINCT -0.2218
-4.7737 DISTINCTION -0.2218
-4.7737 DISTINGUISHED -0.2218
-4.7737 DISTRIBUTE -0.2218
-4.7737 DISTRIBUTED -0.2218
-4.7737 DISTRIBUTION -0.2218
-4.7737 DISTRIBUTIONS -0.2218
-4.7737 DISTRIBUTOR -0.2218
-4.7737 DISTRIBUTORS -0.2218
-4.7737 DISTRICT -0.2218
-4.7737 DISTRICTS -0.2218
-4.7737 DISTURBED -0.2218
-4.7737 DIV -0.2218
-4.7737 DIVE -0.2218
-4.7737 DIVERSE -0.2218
-4.7737 DIVERSITY -0.2218
-4.7737 DIVIDE -0.2218
-4.7737 DIVIDED -0.2218
-4.7737 DIVIDEND -0.2218
-4.7737 DIVINE -0.2218
-4.7737 DIVING -0.2218
-4.7737 DIVISION -0.2218
-4.7737 DIVISIONS -0.2218
-4.7737 DIVORCE -0.2218
-4.7737 DIVX -0.2218
-4.7737 DIY -0.2218
-4.7737 DJ -0.2218
-4.7737 DK -0.2218
-4.7737 DL -0.2218
-4.7737 DM -0.2218
-4.7737 DNA -0.2218
-4.7737 DNS -0.2218
-4.7737 DO -0.2218
-4.7737 DOC -0.2218
-4.7737 DOCK -0.2218
-4.7737 DOCS -0.2218
-4.7737 DOCTOR -0.2218
-4.7737 DOCTORS -0.2218
-4.7737 DOCTRINE -0.2218
-4.7737 DOCUMENT -0.2218
-4.7737 DOCUMENTARY -0.2218
-4.7737 DOCUMENTATION -0.2218
-4.7737 DOCUMENTED -0.2218
-4.7737 DOCUMENTS -0.2218
-4.7737 DOD -0.2218
-4.7737 DODGE -0.2218
-4.7737 DOE -0.2218
-4.7737 DOES -0.2218
-4.7737 DOG -0.2218
-4.7737 DOGS -0.2218
-4.7737 DOING -0.2218
-4.7737 DOLL -0.2218
-4.7737 DOLLAR -0.2218
-4.7737 DOLLARS -0.2218
-4.7737 DOLLS -0.2218
-4.7737 DOM -0.2218
-4.7737 DOMAIN -0.2218
-4.7737 DOMAINS -0.2218
-4.7737 DOME -0.2218
-4.7737 DOMESTIC -0.2218
-4.7737 DOMINANT -0.2218
-4.7737 DOMINICAN -0.2218
-4.7737 DON -0.2218
-4.7737 DONALD -0.2218
-4.7737 DONATE -0.2218
-4.7737 DONATED -0.2218
-4.7737 DONATION -0.2218
-4.7737 DONATIONS -0.2218
-4.7737 DONE -0.2218
-4.7737 DONNA -0.2218
-4.7737 DONOR -0.2218
-4.7737 DONORS -0.2218
-4.7737 DONT -0.2218
-4.7737 DOOM -0.2218
-4.7737 DOOR -0.2218
-4.7737 DOORS -0.2218
-4.7737 DOS -0.2218
-4.7737 DOSAGE -0.2218
-4.7737 DOSE -0.2218
-4.7737 DOT -0.2218
-4.7737 DOUBLE -0.2218
-4.7737 DOUBT -0.2218
-4.7737 DOUG -0.2218
-4.7737 DOUGLAS -0.2218
-4.7737 DOVER -0.2218
-4.7737 DOW -0.2218
-4.7737 DOWN -0.2218
-4.7737 DOWNLOAD -0.2218
-4.7737 DOWNLOADABLE -0.2218
-4.7737 DOWNLOADED -0.2218
-4.7737 DOWNLOADING -0.2218
-4.7737 DOWNLOADS -0.2218
-4.7737 DOWNTOWN -0.2218
-4.7737 DOZEN -0.2218
-4.7737 DOZENS -0.2218
-4.7737 DP -0.2218
-4.7737 DPI -0.2218
-4.7737 DR -0.2218
-4.7737 DRAFT -0.2218
-4.7737 DRAG -0.2218
-4.7737 DRAGON -0.2218
-4.7737 DRAIN -0.2218
-4.7737 DRAINAGE -0.2218
-4.7737 DRAMA -0.2218
-4.7737 DRAMATIC -0.2218
-4.7737 DRAMATICALLY -0.2218
-4.7737 DRAW -0.2218
-4.7737 DRAWING -0.2218
-4.7737 DRAWINGS -0.2218
-4.7737 DRAWN -0.2218
-4.7737 DRAWS -0.2218
-4.7737 DREAM -0.2218
-4.7737 DREAMS -0.2218
-4.7737 DRESS -0.2218
-4.7737 DRESSED -0.2218
-4.7737 DRESSES -0.2218
-4.7737 DRESSING -0.2218
-4.7737 DREW -0.2218
-4.7737 DRIED -0.2218
-4.7737 DRILL -0.2218
-4.7737 DRILLING -0.2218
-4.7737 DRINK -0.2218
-4.7737 DRINKING -0.2218
-4.7737 DRINKS -0.2218
-4.7737 DRIVE -0.2218
-4.7737 DRIVEN -0.2218
-4.7737 DRIVER -0.2218
-4.7737 DRIVERS -0.2218
-4.7737 DRIVES -0.2218
-4.7737 DRIVING -0.2218
-4.7737 DROP -0.2218
-4.7737 DROPPED -0.2218
-4.7737 DROPS -0.2218
-4.7737 DROVE -0.2218
-4.7737 DRUG -0.2218
-4.7737 DRUGS -0.2218
-4.7737 DRUM -0.2218
-4.7737 DRUMS -0.2218
-4.7737 DRUNK -0.2218
-4.7737 DRY -0.2218
-4.7737 DRYER -0.2218
-4.7737 DS -0.2218
-4.7737 DSC -0.2218
-4.7737 DSL -0.2218
-4.7737 DT -0.2218
-4.7737 DTS -0.2218
-4.7737 DU -0.2218
-4.7737 DUAL -0.2218
-4.7737 DUBAI -0.2218
-4.7737 DUBLIN -0.2218
-4.7737 DUCK -0.2218
-4.7737 DUDE -0.2218
-4.7737 DUE -0.2218
-4.7737 DUI -0.2218
-4.7737 DUKE -0.2218
-4.7737 DUMB -0.2218
-4.7737 DUMP -0.2218
-4.7737 DUNCAN -0.2218
-4.7737 DUO -0.2218
-4.7737 DUPLICATE -0.2218
-4.7737 DURABLE -0.2218
-4.7737 DURATION -0.2218
-4.7737 DURHAM -0.2218
-4.7737 DURING -0.2218
-4.7737 DUST -0.2218
-4.7737 DUTCH -0.2218
-4.7737 DUTIES -0.2218
-4.7737 DUTY -0.2218
-4.7737 DV -0.2218
-4.7737 DVD -0.2218
-4.7737 DVDS -0.2218
-4.7737 DX -0.2218
-4.7737 DYING -0.2218
-4.7737 DYLAN -0.2218
-4.7737 DYNAMIC -0.2218
-4.7737 DYNAMICS -0.2218
-4.7737 E -0.2218
-4.7737 EA -0.2218
-4.7737 EACH -0.2218
-4.7737 EAGLE -0.2218
-4.7737 EAGLES -0.2218
-4.7737 EAR -0.2218
-4.7737 EARL -0.2218
-4.7737 EARLIER -0.2218
-4.7737 EARLIEST -0.2218
-4.7737 EARLY -0.2218
-4.7737 EARN -0.2218
-4.7737 EARNED -0.2218
-4.7737 EARNING -0.2218
-4.7737 EARNINGS -0.2218
-4.7737 EARRINGS -0.2218
-4.7737 EARS -0.2218
-4.7737 EARTH -0.2218
-4.7737 EARTHQUAKE -0.2218
-4.7737 EASE -0.2218
-4.7737 EASIER -0.2218
-4.7737 EASILY -0.2218
-4.7737 EAST -0.2218
-4.7737 EASTER -0.2218
-4.7737 EASTERN -0.2218
-4.7737 EASY -0.2218
-4.7737 EAT -0.2218
-4.7737 EATING -0.2218
-4.7737 EAU -0.2218
-4.7737 EBAY -0.2218
-4.7737 EBONY -0.2218
-4.7737 EBOOK -0.2218
-4.7737 EBOOKS -0.2218
-4.7737 EC -0.2218
-4.7737 ECHO -0.2218
-4.7737 ECLIPSE -0.2218
-4.7737 ECO -0.2218
-4.7737 ECOLOGICAL -0.2218
-4.7737 ECOLOGY -0.2218
-4.7737 ECOMMERCE -0.2218
-4.7737 ECONOMIC -0.2218
-4.7737 ECONOMICS -0.2218
-4.7737 ECONOMIES -0.2218
-4.7737 ECONOMY -0.2218
-4.7737 ECUADOR -0.2218
-4.7737 ED -0.2218
-4.7737 EDDIE -0.2218
-4.7737 EDEN -0.2218
-4.7737 EDGAR -0.2218
-4.7737 EDGE -0.2218
-4.7737 EDGES -0.2218
-4.7737 EDINBURGH -0.2218
-4.7737 EDIT -0.2218
-4.7737 EDITED -0.2218
-4.7737 EDITING -0.2218
-4.7737 EDITION -0.2218
-4.7737 EDITIONS -0.2218
-4.7737 EDITOR -0.2218
-4.7737 EDITORIAL -0.2218
-4.7737 EDITORIALS -0.2218
-4.7737 EDITORS -0.2218
-4.7737 EDMONTON -0.2218
-4.7737 EDS -0.2218
-4.7737 EDT -0.2218
-4.7737 EDUCATED -0.2218
-4.7737 EDUCATION -0.2218
-4.7737 EDUCATIONAL -0.2218
-4.7737 EDUCATORS -0.2218
-4.7737 EDWARD -0.2218
-4.7737 EDWARDS -0.2218
-4.7737 EE -0.2218
-4.7737 EF -0.2218
-4.7737 EFFECT -0.2218
-4.7737 EFFECTIVE -0.2218
-4.7737 EFFECTIVELY -0.2218
-4.7737 EFFECTIVENESS -0.2218
-4.7737 EFFECTS -0.2218
-4.7737 EFFICIENCY -0.2218
-4.7737 EFFICIENT -0.2218
-4.7737 EFFICIENTLY -0.2218
-4.7737 EFFORT -0.2218
-4.7737 EFFORTS -0.2218
-4.7737 EG -0.2218
-4.7737 EGG -0.2218
-4.7737 EGGS -0.2218
-4.7737 EGYPT -0.2218
-4.7737 EGYPTIAN -0.2218
-4.7737 EH -0.2218
-4.7737 EIGHT -0.2218
-4.7737 EITHER -0.2218
-4.7737 EL -0.2218
-4.7737 ELDER -0.2218
-4.7737 ELDERLY -0.2218
-4.7737 ELECT -0.2218
-4.7737 ELECTED -0.2218
-4.7737 ELECTION -0.2218
-4.7737 ELECTIONS -0.2218
-4.7737 ELECTORAL -0.2218
-4.7737 ELECTRIC -0.2218
-4.7737 ELECTRICAL -0.2218
-4.7737 ELECTRICITY -0.2218
-4.7737 ELECTRO -0.2218
-4.7737 ELECTRON -0.2218
-4.7737 ELECTRONIC -0.2218
-4.7737 ELECTRONICS -0.2218
-4.7737 ELEGANT -0.2218
-4.7737 ELEMENT -0.2218
-4.7737 ELEMENTARY -0.2218
-4.7737 ELEMENTS -0.2218
-4.7737 ELEPHANT -0.2218
-4.7737 ELEVATION -0.2218
-4.7737 ELEVEN -0.2218
-4.7737 ELIGIBILITY -0.2218
-4.7737 ELIGIBLE -0.2218
-4.7737 ELIMINATE -0.2218
-4.7737 ELIMINATION -0.2218
-4.7737 ELITE -0.2218
-4.7737 ELIZABETH -0.2218
-4.7737 ELLEN -0.2218
-4.7737 ELLIOTT -0.2218
-4.7737 ELLIS -0.2218
-4.7737 ELSE -0.2218
-4.7737 ELSEWHERE -0.2218
-4.7737 ELVIS -0.2218
-4.7737 EM -0.2218
-4.7737 EMACS -0.2218
-4.7737 EMAIL -0.2218
-4.7737 EMAILS -0.2218
-4.7737 EMBASSY -0.2218
-4.7737 EMBEDDED -0.2218
-4.7737 EMERALD -0.2218
-4.7737 EMERGENCY -0.2218
-4.7737 EMERGING -0.2218
-4.7737 EMILY -0.2218
-4.7737 EMINEM -0.2218
-4.7737 EMIRATES -0.2218
-4.7737 EMISSION -0.2218
-4.7737 EMISSIONS -0.2218
-4.7737 EMMA -0.2218
-4.7737 EMOTIONAL -0.2218
-4.7737 EMOTIONS -0.2218
-4.7737 EMPEROR -0.2218
-4.7737 EMPHASIS -0.2218
-4.7737 EMPIRE -0.2218
-4.7737 EMPIRICAL -0.2218
-4.7737 EMPLOY -0.2218
-4.7737 EMPLOYED -0.2218
-4.7737 EMPLOYEE -0.2218
-4.7737 EMPLOYEES -0.2218
-4.7737 EMPLOYER -0.2218
-4.7737 EMPLOYERS -0.2218
-4.7737 EMPLOYMENT -0.2218
-4.7737 EMPTY -0.2218
-4.7737 EN -0.2218
-4.7737 ENABLE -0.2218
-4.7737 ENABLED -0.2218
-4.7737 ENABLES -0.2218
-4.7737 ENABLING -0.2218
-4.7737 ENB -0.2218
-4.7737 ENCLOSED -0.2218
-4.7737 ENCLOSURE -0.2218
-4.7737 ENCODING -0.2218
-4.7737 ENCOUNTER -0.2218
-4.7737 ENCOUNTERED -0.2218
-4.7737 ENCOURAGE -0.2218
-4.7737 ENCOURAGED -0.2218
-4.7737 ENCOURAGES -0.2218
-4.7737 ENCOURAGING -0.2218
-4.7737 ENCRYPTION -0.2218
-4.7737 ENCYCLOPEDIA -0.2218
-4.7737 END -0.2218
-4.7737 ENDANGERED -0.2218
-4.7737 ENDED -0.2218
-4.7737 ENDIF -0.2218
-4.7737 ENDING -0.2218
-4.7737 ENDLESS -0.2218
-4.7737 ENDORSED -0.2218
-4.7737 ENDORSEMENT -0.2218
-4.7737 ENDS -0.2218
-4.7737 ENEMIES -0.2218
-4.7737 ENEMY -0.2218
-4.7737 ENERGY -0.2218
-4.7737 ENFORCEMENT -0.2218
-4.7737 ENG -0.2218
-4.7737 ENGAGE -0.2218
-4.7737 ENGAGED -0.2218
-4.7737 ENGAGEMENT -0.2218
-4.7737 ENGAGING -0.2218
-4.7737 ENGINE -0.2218
-4.7737 ENGINEER -0.2218
-4.7737 ENGINEERING -0.2218
-4.7737 ENGINEERS -0.2218
-4.7737 ENGINES -0.2218
-4.7737 ENGLAND -0.2218
-4.7737 ENGLISH -0.2218
-4.7737 ENHANCE -0.2218
-4.7737 ENHANCED -0.2218
-4.7737 ENHANCEMENT -0.2218
-4.7737 ENHANCEMENTS -0.2218
-4.7737 ENHANCING -0.2218
-4.7737 ENJOY -0.2218
-4.7737 ENJOYED -0.2218
-4.7737 ENJOYING -0.2218
-4.7737 ENLARGE -0.2218
-4.7737 ENLARGEMENT -0.2218
-4.7737 ENORMOUS -0.2218
-4.7737 ENOUGH -0.2218
-4.7737 ENQUIRIES -0.2218
-4.7737 ENQUIRY -0.2218
-4.7737 ENROLLED -0.2218
-4.7737 ENROLLMENT -0.2218
-4.7737 ENSEMBLE -0.2218
-4.7737 ENSURE -0.2218
-4.7737 ENSURES -0.2218
-4.7737 ENSURING -0.2218
-4.7737 ENT -0.2218
-4.7737 ENTER -0.2218
-4.7737 ENTERED -0.2218
-4.7737 ENTERING -0.2218
-4.7737 ENTERPRISE -0.2218
-4.7737 ENTERPRISES -0.2218
-4.7737 ENTERS -0.2218
-4.7737 ENTERTAINING -0.2218
-4.7737 ENTERTAINMENT -0.2218
-4.7737 ENTIRE -0.2218
-4.7737 ENTIRELY -0.2218
-4.7737 ENTITIES -0.2218
-4.7737 ENTITLED -0.2218
-4.7737 ENTITY -0.2218
-4.7737 ENTRANCE -0.2218
-4.7737 ENTREPRENEUR -0.2218
-4.7737 ENTREPRENEURS -0.2218
-4.7737 ENTRIES -0.2218
-4.7737 ENTRY -0.2218
-4.7737 ENVELOPE -0.2218
-4.7737 ENVIRONMENT -0.2218
-4.7737 ENVIRONMENTAL -0.2218
-4.7737 ENVIRONMENTS -0.2218
-4.7737 ENZYME -0.2218
-4.7737 EOS -0.2218
-4.7737 EP -0.2218
-4.7737 EPA -0.2218
-4.7737 EPIC -0.2218
-4.7737 EPINIONS -0.2218
-4.7737 EPISODE -0.2218
-4.7737 EPISODES -0.2218
-4.7737 EPSON -0.2218
-4.7737 EQ -0.2218
-4.7737 EQUAL -0.2218
-4.7737 EQUALITY -0.2218
-4.7737 EQUALLY -0.2218
-4.7737 EQUATION -0.2218
-4.7737 EQUATIONS -0.2218
-4.7737 EQUILIBRIUM -0.2218
-4.7737 EQUIPMENT -0.2218
-4.7737 EQUIPPED -0.2218
-4.7737 EQUITY -0.2218
-4.7737 EQUIVALENT -0.2218
-4.7737 ER -0.2218
-4.7737 ERA -0.2218
-4.7737 ERIC -0.2218
-4.7737 ERICSSON -0.2218
-4.7737 ERIK -0.2218
-4.7737 EROTICA -0.2218
-4.7737 ERP -0.2218
-4.7737 ERROR -0.2218
-4.7737 ERRORS -0.2218
-4.7737 ES -0.2218
-4.7737 ESCAPE -0.2218
-4.7737 ESCORTS -0.2218
-4.7737 ESPECIALLY -0.2218
-4.7737 ESPN -0.2218
-4.7737 ESSAY -0.2218
-4.7737 ESSAYS -0.2218
-4.7737 ESSENCE -0.2218
-4.7737 ESSENTIAL -0.2218
-4.7737 ESSENTIALLY -0.2218
-4.7737 ESSENTIALS -0.2218
-4.7737 ESSEX -0.2218
-4.7737 EST -0.2218
-4.7737 ESTABLISH -0.2218
-4.7737 ESTABLISHED -0.2218
-4.7737 ESTABLISHING -0.2218
-4.7737 ESTABLISHMENT -0.2218
-4.7737 ESTATE -0.2218
-4.7737 ESTATES -0.2218
-4.7737 ESTIMATE -0.2218
-4.7737 ESTIMATED -0.2218
-4.7737 ESTIMATES -0.2218
-4.7737 ESTIMATION -0.2218
-4.7737 ESTONIA -0.2218
-4.7737 ET -0.2218
-4.7737 ETC -0.2218
-4.7737 ETERNAL -0.2218
-4.7737 ETHERNET -0.2218
-4.7737 ETHICAL -0.2218
-4.7737 ETHICS -0.2218
-4.7737 ETHIOPIA -0.2218
-4.7737 ETHNIC -0.2218
-4.7737 EU -0.2218
-4.7737 EUGENE -0.2218
-4.7737 EUR -0.2218
-4.7737 EURO -0.2218
-4.7737 EUROPE -0.2218
-4.7737 EUROPEAN -0.2218
-4.7737 EUROS -0.2218
-4.7737 EV -0.2218
-4.7737 EVA -0.2218
-4.7737 EVAL -0.2218
-4.7737 EVALUATE -0.2218
-4.7737 EVALUATED -0.2218
-4.7737 EVALUATING -0.2218
-4.7737 EVALUATION -0.2218
-4.7737 EVALUATIONS -0.2218
-4.7737 EVANESCENCE -0.2218
-4.7737 EVANS -0.2218
-4.7737 EVE -0.2218
-4.7737 EVEN -0.2218
-4.7737 EVENING -0.2218
-4.7737 EVENT -0.2218
-4.7737 EVENTS -0.2218
-4.7737 EVENTUALLY -0.2218
-4.7737 EVER -0.2218
-4.7737 EVERY -0.2218
-4.7737 EVERYBODY -0.2218
-4.7737 EVERYDAY -0.2218
-4.7737 EVERYONE -0.2218
-4.7737 EVERYTHING -0.2218
-4.7737 EVERYWHERE -0.2218
-4.7737 EVIDENCE -0.2218
-4.7737 EVIDENT -0.2218
-4.7737 EVIL -0.2218
-4.7737 EVOLUTION -0.2218
-4.7737 EX -0.2218
-4.7737 EXACT -0.2218
-4.7737 EXACTLY -0.2218
-4.7737 EXAM -0.2218
-4.7737 EXAMINATION -0.2218
-4.7737 EXAMINATIONS -0.2218
-4.7737 EXAMINE -0.2218
-4.7737 EXAMINED -0.2218
-4.7737 EXAMINES -0.2218
-4.7737 EXAMINING -0.2218
-4.7737 EXAMPLE -0.2218
-4.7737 EXAMPLES -0.2218
-4.7737 EXAMS -0.2218
-4.7737 EXCEED -0.2218
-4.7737 EXCEL -0.2218
-4.7737 EXCELLENCE -0.2218
-4.7737 EXCELLENT -0.2218
-4.7737 EXCEPT -0.2218
-4.7737 EXCEPTION -0.2218
-4.7737 EXCEPTIONAL -0.2218
-4.7737 EXCEPTIONS -0.2218
-4.7737 EXCERPT -0.2218
-4.7737 EXCESS -0.2218
-4.7737 EXCESSIVE -0.2218
-4.7737 EXCHANGE -0.2218
-4.7737 EXCHANGES -0.2218
-4.7737 EXCITED -0.2218
-4.7737 EXCITEMENT -0.2218
-4.7737 EXCITING -0.2218
-4.7737 EXCLUDE -0.2218
-4.7737 EXCLUDED -0.2218
-4.7737 EXCLUDING -0.2218
-4.7737 EXCLUSION -0.2218
-4.7737 EXCLUSIVE -0.2218
-4.7737 EXCLUSIVELY -0.2218
-4.7737 EXCUSE -0.2218
-4.7737 EXEC -0.2218
-4.7737 EXECUTE -0.2218
-4.7737 EXECUTED -0.2218
-4.7737 EXECUTION -0.2218
-4.7737 EXECUTIVE -0.2218
-4.7737 EXECUTIVES -0.2218
-4.7737 EXEMPT -0.2218
-4.7737 EXEMPTION -0.2218
-4.7737 EXERCISE -0.2218
-4.7737 EXERCISES -0.2218
-4.7737 EXHAUST -0.2218
-4.7737 EXHIBIT -0.2218
-4.7737 EXHIBITION -0.2218
-4.7737 EXHIBITIONS -0.2218
-4.7737 EXHIBITS -0.2218
-4.7737 EXIST -0.2218
-4.7737 EXISTED -0.2218
-4.7737 EXISTENCE -0.2218
-4.7737 EXISTING -0.2218
-4.7737 EXISTS -0.2218
-4.7737 EXIT -0.2218
-4.7737 EXOTIC -0.2218
-4.7737 EXP -0.2218
-4.7737 EXPAND -0.2218
-4.7737 EXPANDED -0.2218
-4.7737 EXPANDING -0.2218
-4.7737 EXPANSION -0.2218
-4.7737 EXPANSYS -0.2218
-4.7737 EXPECT -0.2218
-4.7737 EXPECTATIONS -0.2218
-4.7737 EXPECTED -0.2218
-4.7737 EXPECTS -0.2218
-4.7737 EXPEDIA -0.2218
-4.7737 EXPENDITURE -0.2218
-4.7737 EXPENDITURES -0.2218
-4.7737 EXPENSE -0.2218
-4.7737 EXPENSES -0.2218
-4.7737 EXPENSIVE -0.2218
-4.7737 EXPERIENCE -0.2218
-4.7737 EXPERIENCED -0.2218
-4.7737 EXPERIENCES -0.2218
-4.7737 EXPERIENCING -0.2218
-4.7737 EXPERIMENT -0.2218
-4.7737 EXPERIMENTAL -0.2218
-4.7737 EXPERIMENTS -0.2218
-4.7737 EXPERT -0.2218
-4.7737 EXPERTISE -0.2218
-4.7737 EXPERTS -0.2218
-4.7737 EXPIRATION -0.2218
-4.7737 EXPIRED -0.2218
-4.7737 EXPIRES -0.2218
-4.7737 EXPLAIN -0.2218
-4.7737 EXPLAINED -0.2218
-4.7737 EXPLAINING -0.2218
-4.7737 EXPLAINS -0.2218
-4.7737 EXPLANATION -0.2218
-4.7737 EXPLICIT -0.2218
-4.7737 EXPLICITLY -0.2218
-4.7737 EXPLORATION -0.2218
-4.7737 EXPLORE -0.2218
-4.7737 EXPLORER -0.2218
-4.7737 EXPLORING -0.2218
-4.7737 EXPLOSION -0.2218
-4.7737 EXPO -0.2218
-4.7737 EXPORT -0.2218
-4.7737 EXPORTS -0.2218
-4.7737 EXPOSED -0.2218
-4.7737 EXPOSURE -0.2218
-4.7737 EXPRESS -0.2218
-4.7737 EXPRESSED -0.2218
-4.7737 EXPRESSION -0.2218
-4.7737 EXPRESSIONS -0.2218
-4.7737 EXT -0.2218
-4.7737 EXTEND -0.2218
-4.7737 EXTENDED -0.2218
-4.7737 EXTENDING -0.2218
-4.7737 EXTENDS -0.2218
-4.7737 EXTENSION -0.2218
-4.7737 EXTENSIONS -0.2218
-4.7737 EXTENSIVE -0.2218
-4.7737 EXTENT -0.2218
-4.7737 EXTERIOR -0.2218
-4.7737 EXTERNAL -0.2218
-4.7737 EXTRA -0.2218
-4.7737 EXTRACT -0.2218
-4.7737 EXTRACTION -0.2218
-4.7737 EXTRAORDINARY -0.2218
-4.7737 EXTRAS -0.2218
-4.7737 EXTREME -0.2218
-4.7737 EXTREMELY -0.2218
-4.7737 EYE -0.2218
-4.7737 EYED -0.2218
-4.7737 EYES -0.2218
-4.7737 EZ -0.2218
-4.7737 F -0.2218
-4.7737 FA -0.2218
-4.7737 FABRIC -0.2218
-4.7737 FABRICS -0.2218
-4.7737 FABULOUS -0.2218
-4.7737 FACE -0.2218
-4.7737 FACED -0.2218
-4.7737 FACES -0.2218
-4.7737 FACIAL -0.2218
-4.7737 FACILITATE -0.2218
-4.7737 FACILITIES -0.2218
-4.7737 FACILITY -0.2218
-4.7737 FACING -0.2218
-4.7737 FACT -0.2218
-4.7737 FACTOR -0.2218
-4.7737 FACTORS -0.2218
-4.7737 FACTORY -0.2218
-4.7737 FACTS -0.2218
-4.7737 FACULTY -0.2218
-4.7737 FAIL -0.2218
-4.7737 FAILED -0.2218
-4.7737 FAILING -0.2218
-4.7737 FAILS -0.2218
-4.7737 FAILURE -0.2218
-4.7737 FAILURES -0.2218
-4.7737 FAIR -0.2218
-4.7737 FAIRFIELD -0.2218
-4.7737 FAIRLY -0.2218
-4.7737 FAIRY -0.2218
-4.7737 FAITH -0.2218
-4.7737 FAKE -0.2218
-4.7737 FALL -0.2218
-4.7737 FALLEN -0.2218
-4.7737 FALLING -0.2218
-4.7737 FALLS -0.2218
-4.7737 FALSE -0.2218
-4.7737 FAME -0.2218
-4.7737 FAMILIAR -0.2218
-4.7737 FAMILIES -0.2218
-4.7737 FAMILY -0.2218
-4.7737 FAMOUS -0.2218
-4.7737 FAN -0.2218
-4.7737 FANCY -0.2218
-4.7737 FANS -0.2218
-4.7737 FANTASTIC -0.2218
-4.7737 FANTASY -0.2218
-4.7737 FAQ -0.2218
-4.7737 FAQS -0.2218
-4.7737 FAR -0.2218
-4.7737 FARE -0.2218
-4.7737 FARES -0.2218
-4.7737 FARM -0.2218
-4.7737 FARMER -0.2218
-4.7737 FARMERS -0.2218
-4.7737 FARMING -0.2218
-4.7737 FARMS -0.2218
-4.7737 FASCINATING -0.2218
-4.7737 FASHION -0.2218
-4.7737 FAST -0.2218
-4.7737 FASTER -0.2218
-4.7737 FASTEST -0.2218
-4.7737 FAT -0.2218
-4.7737 FATAL -0.2218
-4.7737 FATE -0.2218
-4.7737 FATHER -0.2218
-4.7737 FATHERS -0.2218
-4.7737 FATTY -0.2218
-4.7737 FAULT -0.2218
-4.7737 FAVOR -0.2218
-4.7737 FAVORITE -0.2218
-4.7737 FAVORITES -0.2218
-4.7737 FAVORS -0.2218
-4.7737 FAVOUR -0.2218
-4.7737 FAVOURITE -0.2218
-4.7737 FAVOURITES -0.2218
-4.7737 FAX -0.2218
-4.7737 FBI -0.2218
-4.7737 FC -0.2218
-4.7737 FCC -0.2218
-4.7737 FD -0.2218
-4.7737 FDA -0.2218
-4.7737 FE -0.2218
-4.7737 FEAR -0.2218
-4.7737 FEARS -0.2218
-4.7737 FEAT -0.2218
-4.7737 FEATURE -0.2218
-4.7737 FEATURED -0.2218
-4.7737 FEATURES -0.2218
-4.7737 FEATURING -0.2218
-4.7737 FEB -0.2218
-4.7737 FEBRUARY -0.2218
-4.7737 FED -0.2218
-4.7737 FEDERAL -0.2218
-4.7737 FEDERATION -0.2218
-4.7737 FEE -0.2218
-4.7737 FEED -0.2218
-4.7737 FEEDBACK -0.2218
-4.7737 FEEDING -0.2218
-4.7737 FEEDS -0.2218
-4.7737 FEEL -0.2218
-4.7737 FEELING -0.2218
-4.7737 FEELINGS -0.2218
-4.7737 FEELS -0.2218
-4.7737 FEES -0.2218
-4.7737 FEET -0.2218
-4.7737 FELL -0.2218
-4.7737 FELLOW -0.2218
-4.7737 FELLOWSHIP -0.2218
-4.7737 FELT -0.2218
-4.7737 FEMALE -0.2218
-4.7737 FEMALES -0.2218
-4.7737 FENCE -0.2218
-4.7737 FEOF -0.2218
-4.7737 FERRARI -0.2218
-4.7737 FERRY -0.2218
-4.7737 FESTIVAL -0.2218
-4.7737 FESTIVALS -0.2218
-4.7737 FETISH -0.2218
-4.7737 FEVER -0.2218
-4.7737 FEW -0.2218
-4.7737 FEWER -0.2218
-4.7737 FF -0.2218
-4.7737 FG -0.2218
-4.7737 FI -0.2218
-4.7737 FIBER -0.2218
-4.7737 FIBRE -0.2218
-4.7737 FICTION -0.2218
-4.7737 FIELD -0.2218
-4.7737 FIELDS -0.2218
-4.7737 FIFTEEN -0.2218
-4.7737 FIFTH -0.2218
-4.7737 FIFTY -0.2218
-4.7737 FIG -0.2218
-4.7737 FIGHT -0.2218
-4.7737 FIGHTER -0.2218
-4.7737 FIGHTERS -0.2218
-4.7737 FIGHTING -0.2218
-4.7737 FIGURE -0.2218
-4.7737 FIGURED -0.2218
-4.7737 FIGURES -0.2218
-4.7737 FIJI -0.2218
-4.7737 FILE -0.2218
-4.7737 FILED -0.2218
-4.7737 FILENAME -0.2218
-4.7737 FILES -0.2218
-4.7737 FILING -0.2218
-4.7737 FILL -0.2218
-4.7737 FILLED -0.2218
-4.7737 FILLING -0.2218
-4.7737 FILM -0.2218
-4.7737 FILME -0.2218
-4.7737 FILMS -0.2218
-4.7737 FILTER -0.2218
-4.7737 FILTERING -0.2218
-4.7737 FILTERS -0.2218
-4.7737 FIN -0.2218
-4.7737 FINAL -0.2218
-4.7737 FINALLY -0.2218
-4.7737 FINALS -0.2218
-4.7737 FINANCE -0.2218
-4.7737 FINANCES -0.2218
-4.7737 FINANCIAL -0.2218
-4.7737 FINANCING -0.2218
-4.7737 FIND -0.2218
-4.7737 FINDARTICLES -0.2218
-4.7737 FINDER -0.2218
-4.7737 FINDING -0.2218
-4.7737 FINDINGS -0.2218
-4.7737 FINDLAW -0.2218
-4.7737 FINDS -0.2218
-4.7737 FINE -0.2218
-4.7737 FINEST -0.2218
-4.7737 FINGER -0.2218
-4.7737 FINGERS -0.2218
-4.7737 FINISH -0.2218
-4.7737 FINISHED -0.2218
-4.7737 FINISHING -0.2218
-4.7737 FINITE -0.2218
-4.7737 FINLAND -0.2218
-4.7737 FINNISH -0.2218
-4.7737 FIORICET -0.2218
-4.7737 FIRE -0.2218
-4.7737 FIRED -0.2218
-4.7737 FIREFOX -0.2218
-4.7737 FIREPLACE -0.2218
-4.7737 FIRES -0.2218
-4.7737 FIREWALL -0.2218
-4.7737 FIREWIRE -0.2218
-4.7737 FIRM -0.2218
-4.7737 FIRMS -0.2218
-4.7737 FIRMWARE -0.2218
-4.7737 FIRST -0.2218
-4.7737 FISCAL -0.2218
-4.7737 FISH -0.2218
-4.7737 FISHER -0.2218
-4.7737 FISHERIES -0.2218
-4.7737 FISHING -0.2218
-4.7737 FIST -0.2218
-4.7737 FIT -0.2218
-4.7737 FITNESS -0.2218
-4.7737 FITS -0.2218
-4.7737 FITTED -0.2218
-4.7737 FITTING -0.2218
-4.7737 FIVE -0.2218
-4.7737 FIX -0.2218
-4.7737 FIXED -0.2218
-4.7737 FIXES -0.2218
-4.7737 FIXTURES -0.2218
-4.7737 FL -0.2218
-4.7737 FLAG -0.2218
-4.7737 FLAGS -0.2218
-4.7737 FLAME -0.2218
-4.7737 FLASH -0.2218
-4.7737 FLASHERS -0.2218
-4.7737 FLASHING -0.2218
-4.7737 FLAT -0.2218
-4.7737 FLAVOR -0.2218
-4.7737 FLEECE -0.2218
-4.7737 FLEET -0.2218
-4.7737 FLESH -0.2218
-4.7737 FLEX -0.2218
-4.7737 FLEXIBILITY -0.2218
-4.7737 FLEXIBLE -0.2218
-4.7737 FLICKR -0.2218
-4.7737 FLIGHT -0.2218
-4.7737 FLIGHTS -0.2218
-4.7737 FLIP -0.2218
-4.7737 FLOAT -0.2218
-4.7737 FLOATING -0.2218
-4.7737 FLOOD -0.2218
-4.7737 FLOOR -0.2218
-4.7737 FLOORING -0.2218
-4.7737 FLOORS -0.2218
-4.7737 FLOPPY -0.2218
-4.7737 FLORAL -0.2218
-4.7737 FLORENCE -0.2218
-4.7737 FLORIDA -0.2218
-4.7737 FLORIST -0.2218
-4.7737 FLORISTS -0.2218
-4.7737 FLOUR -0.2218
-4.7737 FLOW -0.2218
-4.7737 FLOWER -0.2218
-4.7737 FLOWERS -0.2218
-4.7737 FLOWS -0.2218
-4.7737 FLOYD -0.2218
-4.7737 FLU -0.2218
-4.7737 FLUID -0.2218
-4.7737 FLUSH -0.2218
-4.7737 FLUX -0.2218
-4.7737 FLY -0.2218
-4.7737 FLYER -0.2218
-4.7737 FLYING -0.2218
-4.7737 FM -0.2218
-4.7737 FO -0.2218
-4.7737 FOAM -0.2218
-4.7737 FOCAL -0.2218
-4.7737 FOCUS -0.2218
-4.7737 FOCUSED -0.2218
-4.7737 FOCUSES -0.2218
-4.7737 FOCUSING -0.2218
-4.7737 FOG -0.2218
-4.7737 FOLD -0.2218
-4.7737 FOLDER -0.2218
-4.7737 FOLDERS -0.2218
-4.7737 FOLDING -0.2218
-4.7737 FOLK -0.2218
-4.7737 FOLKS -0.2218
-4.7737 FOLLOW -0.2218
-4.7737 FOLLOWED -0.2218
-4.7737 FOLLOWING -0.2218
-4.7737 FOLLOWS -0.2218
-4.7737 FONT -0.2218
-4.7737 FONTS -0.2218
-4.7737 FOO -0.2218
-4.7737 FOOD -0.2218
-4.7737 FOODS -0.2218
-4.7737 FOOL -0.2218
-4.7737 FOOT -0.2218
-4.7737 FOOTAGE -0.2218
-4.7737 FOOTBALL -0.2218
-4.7737 FOOTWEAR -0.2218
-4.7737 FOR -0.2218
-4.7737 FORBES -0.2218
-4.7737 FORBIDDEN -0.2218
-4.7737 FORCE -0.2218
-4.7737 FORCED -0.2218
-4.7737 FORCES -0.2218
-4.7737 FORD -0.2218
-4.7737 FORECAST -0.2218
-4.7737 FORECASTS -0.2218
-4.7737 FOREIGN -0.2218
-4.7737 FOREST -0.2218
-4.7737 FORESTRY -0.2218
-4.7737 FORESTS -0.2218
-4.7737 FOREVER -0.2218
-4.7737 FORGE -0.2218
-4.7737 FORGET -0.2218
-4.7737 FORGOT -0.2218
-4.7737 FORGOTTEN -0.2218
-4.7737 FORK -0.2218
-4.7737 FORM -0.2218
-4.7737 FORMAL -0.2218
-4.7737 FORMAT -0.2218
-4.7737 FORMATION -0.2218
-4.7737 FORMATS -0.2218
-4.7737 FORMATTING -0.2218
-4.7737 FORMED -0.2218
-4.7737 FORMER -0.2218
-4.7737 FORMERLY -0.2218
-4.7737 FORMING -0.2218
-4.7737 FORMS -0.2218
-4.7737 FORMULA -0.2218
-4.7737 FORT -0.2218
-4.7737 FORTH -0.2218
-4.7737 FORTUNE -0.2218
-4.7737 FORTY -0.2218
-4.7737 FORUM -0.2218
-4.7737 FORUMS -0.2218
-4.7737 FORWARD -0.2218
-4.7737 FORWARDING -0.2218
-4.7737 FOSSIL -0.2218
-4.7737 FOSTER -0.2218
-4.7737 FOTO -0.2218
-4.7737 FOTOS -0.2218
-4.7737 FOUGHT -0.2218
-4.7737 FOUL -0.2218
-4.7737 FOUND -0.2218
-4.7737 FOUNDATION -0.2218
-4.7737 FOUNDATIONS -0.2218
-4.7737 FOUNDED -0.2218
-4.7737 FOUNDER -0.2218
-4.7737 FOUNTAIN -0.2218
-4.7737 FOUR -0.2218
-4.7737 FOURTH -0.2218
-4.7737 FOX -0.2218
-4.7737 FP -0.2218
-4.7737 FR -0.2218
-4.7737 FRACTION -0.2218
-4.7737 FRAGRANCE -0.2218
-4.7737 FRAGRANCES -0.2218
-4.7737 FRAME -0.2218
-4.7737 FRAMED -0.2218
-4.7737 FRAMES -0.2218
-4.7737 FRAMEWORK -0.2218
-4.7737 FRAMING -0.2218
-4.7737 FRANCE -0.2218
-4.7737 FRANCHISE -0.2218
-4.7737 FRANCIS -0.2218
-4.7737 FRANCISCO -0.2218
-4.7737 FRANK -0.2218
-4.7737 FRANKFURT -0.2218
-4.7737 FRANKLIN -0.2218
-4.7737 FRASER -0.2218
-4.7737 FRAUD -0.2218
-4.7737 FRED -0.2218
-4.7737 FREDERICK -0.2218
-4.7737 FREE -0.2218
-4.7737 FREEBSD -0.2218
-4.7737 FREEDOM -0.2218
-4.7737 FREELANCE -0.2218
-4.7737 FREELY -0.2218
-4.7737 FREEWARE -0.2218
-4.7737 FREEZE -0.2218
-4.7737 FREIGHT -0.2218
-4.7737 FRENCH -0.2218
-4.7737 FREQUENCIES -0.2218
-4.7737 FREQUENCY -0.2218
-4.7737 FREQUENT -0.2218
-4.7737 FREQUENTLY -0.2218
-4.7737 FRESH -0.2218
-4.7737 FRI -0.2218
-4.7737 FRIDAY -0.2218
-4.7737 FRIDGE -0.2218
-4.7737 FRIEND -0.2218
-4.7737 FRIENDLY -0.2218
-4.7737 FRIENDS -0.2218
-4.7737 FRIENDSHIP -0.2218
-4.7737 FROG -0.2218
-4.7737 FROM -0.2218
-4.7737 FRONT -0.2218
-4.7737 FRONTIER -0.2218
-4.7737 FRONTPAGE -0.2218
-4.7737 FROST -0.2218
-4.7737 FROZEN -0.2218
-4.7737 FRUIT -0.2218
-4.7737 FRUITS -0.2218
-4.7737 FS -0.2218
-4.7737 FT -0.2218
-4.7737 FTP -0.2218
-4.7737 FU -0.2218
-4.7737 FUEL -0.2218
-4.7737 FUJI -0.2218
-4.7737 FUJITSU -0.2218
-4.7737 FULL -0.2218
-4.7737 FULLY -0.2218
-4.7737 FUN -0.2218
-4.7737 FUNCTION -0.2218
-4.7737 FUNCTIONAL -0.2218
-4.7737 FUNCTIONALITY -0.2218
-4.7737 FUNCTIONING -0.2218
-4.7737 FUNCTIONS -0.2218
-4.7737 FUND -0.2218
-4.7737 FUNDAMENTAL -0.2218
-4.7737 FUNDAMENTALS -0.2218
-4.7737 FUNDED -0.2218
-4.7737 FUNDING -0.2218
-4.7737 FUNDRAISING -0.2218
-4.7737 FUNDS -0.2218
-4.7737 FUNERAL -0.2218
-4.7737 FUNK -0.2218
-4.7737 FUNKY -0.2218
-4.7737 FUNNY -0.2218
-4.7737 FUR -0.2218
-4.7737 FURNISHED -0.2218
-4.7737 FURNISHINGS -0.2218
-4.7737 FURNITURE -0.2218
-4.7737 FURTHER -0.2218
-4.7737 FURTHERMORE -0.2218
-4.7737 FUSION -0.2218
-4.7737 FUTURE -0.2218
-4.7737 FUTURES -0.2218
-4.7737 FUZZY -0.2218
-4.7737 FW -0.2218
-4.7737 FWD -0.2218
-4.7737 FX -0.2218
-4.7737 FY -0.2218
-4.7737 G -0.2218
-4.7737 GA -0.2218
-4.7737 GABRIEL -0.2218
-4.7737 GADGETS -0.2218
-4.7737 GAGE -0.2218
-4.7737 GAIN -0.2218
-4.7737 GAINED -0.2218
-4.7737 GAINS -0.2218
-4.7737 GALAXY -0.2218
-4.7737 GALE -0.2218
-4.7737 GALLERIES -0.2218
-4.7737 GALLERY -0.2218
-4.7737 GAMBLING -0.2218
-4.7737 GAME -0.2218
-4.7737 GAMECUBE -0.2218
-4.7737 GAMES -0.2218
-4.7737 GAMESPOT -0.2218
-4.7737 GAMING -0.2218
-4.7737 GAMMA -0.2218
-4.7737 GANG -0.2218
-4.7737 GAP -0.2218
-4.7737 GAPS -0.2218
-4.7737 GARAGE -0.2218
-4.7737 GARBAGE -0.2218
-4.7737 GARCIA -0.2218
-4.7737 GARDEN -0.2218
-4.7737 GARDENING -0.2218
-4.7737 GARDENS -0.2218
-4.7737 GARLIC -0.2218
-4.7737 GARMIN -0.2218
-4.7737 GARY -0.2218
-4.7737 GAS -0.2218
-4.7737 GASOLINE -0.2218
-4.7737 GATE -0.2218
-4.7737 GATES -0.2218
-4.7737 GATEWAY -0.2218
-4.7737 GATHER -0.2218
-4.7737 GATHERED -0.2218
-4.7737 GATHERING -0.2218
-4.7737 GAUGE -0.2218
-4.7737 GAVE -0.2218
-4.7737 GAY -0.2218
-4.7737 GAYS -0.2218
-4.7737 GAZETTE -0.2218
-4.7737 GB -0.2218
-4.7737 GBA -0.2218
-4.7737 GBP -0.2218
-4.7737 GC -0.2218
-4.7737 GCC -0.2218
-4.7737 GD -0.2218
-4.7737 GDP -0.2218
-4.7737 GE -0.2218
-4.7737 GEAR -0.2218
-4.7737 GEEK -0.2218
-4.7737 GEL -0.2218
-4.7737 GEM -0.2218
-4.7737 GEN -0.2218
-4.7737 GENDER -0.2218
-4.7737 GENE -0.2218
-4.7737 GENEALOGY -0.2218
-4.7737 GENERAL -0.2218
-4.7737 GENERALLY -0.2218
-4.7737 GENERATE -0.2218
-4.7737 GENERATED -0.2218
-4.7737 GENERATES -0.2218
-4.7737 GENERATING -0.2218
-4.7737 GENERATION -0.2218
-4.7737 GENERATIONS -0.2218
-4.7737 GENERATOR -0.2218
-4.7737 GENERATORS -0.2218
-4.7737 GENERIC -0.2218
-4.7737 GENEROUS -0.2218
-4.7737 GENES -0.2218
-4.7737 GENESIS -0.2218
-4.7737 GENETIC -0.2218
-4.7737 GENETICS -0.2218
-4.7737 GENEVA -0.2218
-4.7737 GENIUS -0.2218
-4.7737 GENOME -0.2218
-4.7737 GENRE -0.2218
-4.7737 GENRES -0.2218
-4.7737 GENTLE -0.2218
-4.7737 GENTLEMAN -0.2218
-4.7737 GENTLY -0.2218
-4.7737 GENUINE -0.2218
-4.7737 GEO -0.2218
-4.7737 GEOGRAPHIC -0.2218
-4.7737 GEOGRAPHICAL -0.2218
-4.7737 GEOGRAPHY -0.2218
-4.7737 GEOLOGICAL -0.2218
-4.7737 GEOLOGY -0.2218
-4.7737 GEOMETRY -0.2218
-4.7737 GEORGE -0.2218
-4.7737 GEORGIA -0.2218
-4.7737 GERALD -0.2218
-4.7737 GERMAN -0.2218
-4.7737 GERMANY -0.2218
-4.7737 GET -0.2218
-4.7737 GETS -0.2218
-4.7737 GETTING -0.2218
-4.7737 GG -0.2218
-4.7737 GHANA -0.2218
-4.7737 GHOST -0.2218
-4.7737 GHZ -0.2218
-4.7737 GI -0.2218
-4.7737 GIANT -0.2218
-4.7737 GIANTS -0.2218
-4.7737 GIBRALTAR -0.2218
-4.7737 GIBSON -0.2218
-4.7737 GIF -0.2218
-4.7737 GIFT -0.2218
-4.7737 GIFTS -0.2218
-4.7737 GIG -0.2218
-4.7737 GILBERT -0.2218
-4.7737 GIRL -0.2218
-4.7737 GIRLFRIEND -0.2218
-4.7737 GIRLS -0.2218
-4.7737 GIS -0.2218
-4.7737 GIVE -0.2218
-4.7737 GIVEN -0.2218
-4.7737 GIVES -0.2218
-4.7737 GIVING -0.2218
-4.7737 GL -0.2218
-4.7737 GLAD -0.2218
-4.7737 GLANCE -0.2218
-4.7737 GLASGOW -0.2218
-4.7737 GLASS -0.2218
-4.7737 GLASSES -0.2218
-4.7737 GLEN -0.2218
-4.7737 GLENN -0.2218
-4.7737 GLOBAL -0.2218
-4.7737 GLOBE -0.2218
-4.7737 GLORY -0.2218
-4.7737 GLOSSARY -0.2218
-4.7737 GLOVES -0.2218
-4.7737 GLOW -0.2218
-4.7737 GLUCOSE -0.2218
-4.7737 GM -0.2218
-4.7737 GMBH -0.2218
-4.7737 GMC -0.2218
-4.7737 GMT -0.2218
-4.7737 GNOME -0.2218
-4.7737 GNU -0.2218
-4.7737 GO -0.2218
-4.7737 GOAL -0.2218
-4.7737 GOALS -0.2218
-4.7737 GOAT -0.2218
-4.7737 GODS -0.2218
-4.7737 GOES -0.2218
-4.7737 GOING -0.2218
-4.7737 GOLD -0.2218
-4.7737 GOLDEN -0.2218
-4.7737 GOLF -0.2218
-4.7737 GONE -0.2218
-4.7737 GONNA -0.2218
-4.7737 GOOD -0.2218
-4.7737 GOODS -0.2218
-4.7737 GOOGLE -0.2218
-4.7737 GORDON -0.2218
-4.7737 GORE -0.2218
-4.7737 GORGEOUS -0.2218
-4.7737 GOSPEL -0.2218
-4.7737 GOSSIP -0.2218
-4.7737 GOT -0.2218
-4.7737 GOTHIC -0.2218
-4.7737 GOTO -0.2218
-4.7737 GOTTA -0.2218
-4.7737 GOTTEN -0.2218
-4.7737 GOURMET -0.2218
-4.7737 GOVERNANCE -0.2218
-4.7737 GOVERNING -0.2218
-4.7737 GOVERNMENT -0.2218
-4.7737 GOVERNMENTAL -0.2218
-4.7737 GOVERNMENTS -0.2218
-4.7737 GOVERNOR -0.2218
-4.7737 GP -0.2218
-4.7737 GPL -0.2218
-4.7737 GPS -0.2218
-4.7737 GR -0.2218
-4.7737 GRAB -0.2218
-4.7737 GRACE -0.2218
-4.7737 GRAD -0.2218
-4.7737 GRADE -0.2218
-4.7737 GRADES -0.2218
-4.7737 GRADUALLY -0.2218
-4.7737 GRADUATE -0.2218
-4.7737 GRADUATED -0.2218
-4.7737 GRADUATES -0.2218
-4.7737 GRADUATION -0.2218
-4.7737 GRAHAM -0.2218
-4.7737 GRAIN -0.2218
-4.7737 GRAMMAR -0.2218
-4.7737 GRAMS -0.2218
-4.7737 GRAND -0.2218
-4.7737 GRANDE -0.2218
-4.7737 GRANNY -0.2218
-4.7737 GRANT -0.2218
-4.7737 GRANTED -0.2218
-4.7737 GRANTS -0.2218
-4.7737 GRAPH -0.2218
-4.7737 GRAPHIC -0.2218
-4.7737 GRAPHICAL -0.2218
-4.7737 GRAPHICS -0.2218
-4.7737 GRAPHS -0.2218
-4.7737 GRAS -0.2218
-4.7737 GRASS -0.2218
-4.7737 GRATEFUL -0.2218
-4.7737 GRATIS -0.2218
-4.7737 GRATUIT -0.2218
-4.7737 GRAVE -0.2218
-4.7737 GRAVITY -0.2218
-4.7737 GRAY -0.2218
-4.7737 GREAT -0.2218
-4.7737 GREATER -0.2218
-4.7737 GREATEST -0.2218
-4.7737 GREATLY -0.2218
-4.7737 GREECE -0.2218
-4.7737 GREEK -0.2218
-4.7737 GREEN -0.2218
-4.7737 GREENE -0.2218
-4.7737 GREENHOUSE -0.2218
-4.7737 GREENSBORO -0.2218
-4.7737 GREETING -0.2218
-4.7737 GREETINGS -0.2218
-4.7737 GREG -0.2218
-4.7737 GREGORY -0.2218
-4.7737 GRENADA -0.2218
-4.7737 GREW -0.2218
-4.7737 GREY -0.2218
-4.7737 GRID -0.2218
-4.7737 GRIFFIN -0.2218
-4.7737 GRILL -0.2218
-4.7737 GRIP -0.2218
-4.7737 GROCERY -0.2218
-4.7737 GROOVE -0.2218
-4.7737 GROSS -0.2218
-4.7737 GROUND -0.2218
-4.7737 GROUNDS -0.2218
-4.7737 GROUNDWATER -0.2218
-4.7737 GROUP -0.2218
-4.7737 GROUPS -0.2218
-4.7737 GROVE -0.2218
-4.7737 GROW -0.2218
-4.7737 GROWING -0.2218
-4.7737 GROWN -0.2218
-4.7737 GROWS -0.2218
-4.7737 GROWTH -0.2218
-4.7737 GS -0.2218
-4.7737 GSM -0.2218
-4.7737 GST -0.2218
-4.7737 GT -0.2218
-4.7737 GTK -0.2218
-4.7737 GUAM -0.2218
-4.7737 GUARANTEE -0.2218
-4.7737 GUARANTEED -0.2218
-4.7737 GUARANTEES -0.2218
-4.7737 GUARD -0.2218
-4.7737 GUARDIAN -0.2218
-4.7737 GUARDS -0.2218
-4.7737 GUATEMALA -0.2218
-4.7737 GUESS -0.2218
-4.7737 GUEST -0.2218
-4.7737 GUESTBOOK -0.2218
-4.7737 GUESTS -0.2218
-4.7737 GUI -0.2218
-4.7737 GUIDANCE -0.2218
-4.7737 GUIDE -0.2218
-4.7737 GUIDED -0.2218
-4.7737 GUIDELINES -0.2218
-4.7737 GUIDES -0.2218
-4.7737 GUILD -0.2218
-4.7737 GUILTY -0.2218
-4.7737 GUINEA -0.2218
-4.7737 GUITAR -0.2218
-4.7737 GUITARS -0.2218
-4.7737 GULF -0.2218
-4.7737 GUN -0.2218
-4.7737 GUNS -0.2218
-4.7737 GURU -0.2218
-4.7737 GUY -0.2218
-4.7737 GUYANA -0.2218
-4.7737 GUYS -0.2218
-4.7737 GYM -0.2218
-4.7737 GZIP -0.2218
-4.7737 H -0.2218
-4.7737 HA -0.2218
-4.7737 HABITAT -0.2218
-4.7737 HABITS -0.2218
-4.7737 HACK -0.2218
-4.7737 HACKER -0.2218
-4.7737 HAD -0.2218
-4.7737 HAIR -0.2218
-4.7737 HAIRY -0.2218
-4.7737 HAITI -0.2218
-4.7737 HALF -0.2218
-4.7737 HALIFAX -0.2218
-4.7737 HALL -0.2218
-4.7737 HALLOWEEN -0.2218
-4.7737 HALO -0.2218
-4.7737 HAM -0.2218
-4.7737 HAMBURG -0.2218
-4.7737 HAMILTON -0.2218
-4.7737 HAMMER -0.2218
-4.7737 HAMPSHIRE -0.2218
-4.7737 HAMPTON -0.2218
-4.7737 HAND -0.2218
-4.7737 HANDBAGS -0.2218
-4.7737 HANDBOOK -0.2218
-4.7737 HANDED -0.2218
-4.7737 HANDHELD -0.2218
-4.7737 HANDHELDS -0.2218
-4.7737 HANDLE -0.2218
-4.7737 HANDLED -0.2218
-4.7737 HANDLES -0.2218
-4.7737 HANDLING -0.2218
-4.7737 HANDMADE -0.2218
-4.7737 HANDS -0.2218
-4.7737 HANDY -0.2218
-4.7737 HANG -0.2218
-4.7737 HANGING -0.2218
-4.7737 HANS -0.2218
-4.7737 HANSEN -0.2218
-4.7737 HAPPEN -0.2218
-4.7737 HAPPENED -0.2218
-4.7737 HAPPENING -0.2218
-4.7737 HAPPENS -0.2218
-4.7737 HAPPINESS -0.2218
-4.7737 HAPPY -0.2218
-4.7737 HARASSMENT -0.2218
-4.7737 HARBOR -0.2218
-4.7737 HARBOUR -0.2218
-4.7737 HARD -0.2218
-4.7737 HARDCOVER -0.2218
-4.7737 HARDER -0.2218
-4.7737 HARDLY -0.2218
-4.7737 HARDWARE -0.2218
-4.7737 HARDWOOD -0.2218
-4.7737 HARLEY -0.2218
-4.7737 HARM -0.2218
-4.7737 HARMFUL -0.2218
-4.7737 HARMONY -0.2218
-4.7737 HAROLD -0.2218
-4.7737 HARPER -0.2218
-4.7737 HARRIS -0.2218
-4.7737 HARRISON -0.2218
-4.7737 HARRY -0.2218
-4.7737 HART -0.2218
-4.7737 HARTFORD -0.2218
-4.7737 HARVARD -0.2218
-4.7737 HARVEST -0.2218
-4.7737 HARVEY -0.2218
-4.7737 HAS -0.2218
-4.7737 HASH -0.2218
-4.7737 HAT -0.2218
-4.7737 HATE -0.2218
-4.7737 HATS -0.2218
-4.7737 HAVE -0.2218
-4.7737 HAVEN -0.2218
-4.7737 HAVING -0.2218
-4.7737 HAWAII -0.2218
-4.7737 HAWAIIAN -0.2218
-4.7737 HAWK -0.2218
-4.7737 HAY -0.2218
-4.7737 HAYES -0.2218
-4.7737 HAZARD -0.2218
-4.7737 HAZARDOUS -0.2218
-4.7737 HAZARDS -0.2218
-4.7737 HB -0.2218
-4.7737 HC -0.2218
-4.7737 HD -0.2218
-4.7737 HDTV -0.2218
-4.7737 HE -0.2218
-4.7737 HEAD -0.2218
-4.7737 HEADED -0.2218
-4.7737 HEADER -0.2218
-4.7737 HEADERS -0.2218
-4.7737 HEADING -0.2218
-4.7737 HEADLINE -0.2218
-4.7737 HEADLINES -0.2218
-4.7737 HEADPHONES -0.2218
-4.7737 HEADQUARTERS -0.2218
-4.7737 HEADS -0.2218
-4.7737 HEADSET -0.2218
-4.7737 HEALING -0.2218
-4.7737 HEALTH -0.2218
-4.7737 HEALTHCARE -0.2218
-4.7737 HEALTHY -0.2218
-4.7737 HEAR -0.2218
-4.7737 HEARD -0.2218
-4.7737 HEARING -0.2218
-4.7737 HEARINGS -0.2218
-4.7737 HEART -0.2218
-4.7737 HEARTS -0.2218
-4.7737 HEAT -0.2218
-4.7737 HEATED -0.2218
-4.7737 HEATER -0.2218
-4.7737 HEATH -0.2218
-4.7737 HEATHER -0.2218
-4.7737 HEATING -0.2218
-4.7737 HEAVEN -0.2218
-4.7737 HEAVILY -0.2218
-4.7737 HEAVY -0.2218
-4.7737 HEBREW -0.2218
-4.7737 HEEL -0.2218
-4.7737 HEIGHT -0.2218
-4.7737 HEIGHTS -0.2218
-4.7737 HELD -0.2218
-4.7737 HELEN -0.2218
-4.7737 HELENA -0.2218
-4.7737 HELICOPTER -0.2218
-4.7737 HELLO -0.2218
-4.7737 HELMET -0.2218
-4.7737 HELP -0.2218
-4.7737 HELPED -0.2218
-4.7737 HELPFUL -0.2218
-4.7737 HELPING -0.2218
-4.7737 HELPS -0.2218
-4.7737 HENCE -0.2218
-4.7737 HENDERSON -0.2218
-4.7737 HENRY -0.2218
-4.7737 HEPATITIS -0.2218
-4.7737 HER -0.2218
-4.7737 HERALD -0.2218
-4.7737 HERB -0.2218
-4.7737 HERBAL -0.2218
-4.7737 HERBS -0.2218
-4.7737 HERE -0.2218
-4.7737 HEREBY -0.2218
-4.7737 HEREIN -0.2218
-4.7737 HERITAGE -0.2218
-4.7737 HERO -0.2218
-4.7737 HEROES -0.2218
-4.7737 HERSELF -0.2218
-4.7737 HEWLETT -0.2218
-4.7737 HEY -0.2218
-4.7737 HH -0.2218
-4.7737 HI -0.2218
-4.7737 HIDDEN -0.2218
-4.7737 HIDE -0.2218
-4.7737 HIERARCHY -0.2218
-4.7737 HIGH -0.2218
-4.7737 HIGHER -0.2218
-4.7737 HIGHEST -0.2218
-4.7737 HIGHLAND -0.2218
-4.7737 HIGHLIGHT -0.2218
-4.7737 HIGHLIGHTED -0.2218
-4.7737 HIGHLIGHTS -0.2218
-4.7737 HIGHLY -0.2218
-4.7737 HIGHS -0.2218
-4.7737 HIGHWAY -0.2218
-4.7737 HIGHWAYS -0.2218
-4.7737 HIKING -0.2218
-4.7737 HILL -0.2218
-4.7737 HILLS -0.2218
-4.7737 HILTON -0.2218
-4.7737 HIM -0.2218
-4.7737 HIMSELF -0.2218
-4.7737 HINDU -0.2218
-4.7737 HINT -0.2218
-4.7737 HINTS -0.2218
-4.7737 HIP -0.2218
-4.7737 HIRE -0.2218
-4.7737 HIRED -0.2218
-4.7737 HIRING -0.2218
-4.7737 HIS -0.2218
-4.7737 HISPANIC -0.2218
-4.7737 HIST -0.2218
-4.7737 HISTORIC -0.2218
-4.7737 HISTORICAL -0.2218
-4.7737 HISTORY -0.2218
-4.7737 HIT -0.2218
-4.7737 HITACHI -0.2218
-4.7737 HITS -0.2218
-4.7737 HITTING -0.2218
-4.7737 HIV -0.2218
-4.7737 HK -0.2218
-4.7737 HL -0.2218
-4.7737 HO -0.2218
-4.7737 HOBBIES -0.2218
-4.7737 HOBBY -0.2218
-4.7737 HOCKEY -0.2218
-4.7737 HOLD -0.2218
-4.7737 HOLDEM -0.2218
-4.7737 HOLDER -0.2218
-4.7737 HOLDERS -0.2218
-4.7737 HOLDING -0.2218
-4.7737 HOLDINGS -0.2218
-4.7737 HOLDS -0.2218
-4.7737 HOLE -0.2218
-4.7737 HOLES -0.2218
-4.7737 HOLIDAY -0.2218
-4.7737 HOLIDAYS -0.2218
-4.7737 HOLLAND -0.2218
-4.7737 HOLLOW -0.2218
-4.7737 HOLLY -0.2218
-4.7737 HOLLYWOOD -0.2218
-4.7737 HOLMES -0.2218
-4.7737 HOLOCAUST -0.2218
-4.7737 HOLY -0.2218
